<?xml version="1.0"?>
<opencv_storage>
<cascade>
  <stageType>BOOST</stageType>
  <featureType>HAAR</featureType>
  <height>20</height>
  <width>30</width>
  <stageParams>
    <boostType>GAB</boostType>
    <minHitRate>9.9500000476837158e-01</minHitRate>
    <maxFalseAlarm>5.0000000000000000e-01</maxFalseAlarm>
    <weightTrimRate>9.4999999999999996e-01</weightTrimRate>
    <maxDepth>1</maxDepth>
    <maxWeakCount>100</maxWeakCount></stageParams>
  <featureParams>
    <maxCatCount>0</maxCatCount>
    <featSize>1</featSize>
    <mode>BASIC</mode></featureParams>
  <stageNum>20</stageNum>
  <stages>
    <!-- stage 0 -->
    <_>
      <maxWeakCount>11</maxWeakCount>
      <stageThreshold>-1.8703843355178833e+00</stageThreshold>
      <weakClassifiers>
        <_>
          <internalNodes>
            0 -1 333 -1.2543830275535583e-01</internalNodes>
          <leafValues>
            8.2950294017791748e-01 -7.0690244436264038e-01</leafValues></_>
        <_>
          <internalNodes>
            0 -1 116 -5.7570911943912506e-02</internalNodes>
          <leafValues>
            5.2574586868286133e-01 -5.1858943700790405e-01</leafValues></_>
        <_>
          <internalNodes>
            0 -1 606 -2.0223034080117941e-03</internalNodes>
          <leafValues>
            3.4861129522323608e-01 -4.6585753560066223e-01</leafValues></_>
        <_>
          <internalNodes>
            0 -1 631 -5.3175995126366615e-03</internalNodes>
          <leafValues>
            5.3118616342544556e-01 -1.7593973875045776e-01</leafValues></_>
        <_>
          <internalNodes>
            0 -1 482 -5.0278948619961739e-03</internalNodes>
          <leafValues>
            6.0519516468048096e-01 -1.4017391204833984e-01</leafValues></_>
        <_>
          <internalNodes>
            0 -1 797 -2.8727953322231770e-03</internalNodes>
          <leafValues>
            4.2363619804382324e-01 -2.0076769590377808e-01</leafValues></_>
        <_>
          <internalNodes>
            0 -1 687 3.0277855694293976e-04</internalNodes>
          <leafValues>
            -4.4044551253318787e-01 2.0114688575267792e-01</leafValues></_>
        <_>
          <internalNodes>
            0 -1 760 8.2837045192718506e-03</internalNodes>
          <leafValues>
            -1.1936708539724350e-01 6.5282183885574341e-01</leafValues></_>
        <_>
          <internalNodes>
            0 -1 388 -3.0851656198501587e-01</internalNodes>
          <leafValues>
            8.9996540546417236e-01 -5.0188530236482620e-02</leafValues></_>
        <_>
          <internalNodes>
            0 -1 511 -2.3184556048363447e-03</internalNodes>
          <leafValues>
            4.0244808793067932e-01 -1.6488692164421082e-01</leafValues></_>
        <_>
          <internalNodes>
            0 -1 355 -2.7451568748801947e-03</internalNodes>
          <leafValues>
            7.0214110612869263e-01 -9.6192918717861176e-02</leafValues></_></weakClassifiers></_>
    <!-- stage 1 -->
    <_>
      <maxWeakCount>18</maxWeakCount>
      <stageThreshold>-1.9915086030960083e+00</stageThreshold>
      <weakClassifiers>
        <_>
          <internalNodes>
            0 -1 261 -1.8489065766334534e-01</internalNodes>
          <leafValues>
            7.6624065637588501e-01 -6.8832731246948242e-01</leafValues></_>
        <_>
          <internalNodes>
            0 -1 70 -1.2141866236925125e-01</internalNodes>
          <leafValues>
            5.3423309326171875e-01 -3.3423346281051636e-01</leafValues></_>
        <_>
          <internalNodes>
            0 -1 409 -7.0175919681787491e-03</internalNodes>
          <leafValues>
            3.5165265202522278e-01 -2.7321442961692810e-01</leafValues></_>
        <_>
          <internalNodes>
            0 -1 619 -1.6996790654957294e-03</internalNodes>
          <leafValues>
            5.8352643251419067e-01 -1.7391273379325867e-01</leafValues></_>
        <_>
          <internalNodes>
            0 -1 560 -1.2518705334514380e-03</internalNodes>
          <leafValues>
            4.9165093898773193e-01 -1.5603753924369812e-01</leafValues></_>
        <_>
          <internalNodes>
            0 -1 481 3.4142145887017250e-03</internalNodes>
          <leafValues>
            -1.4938831329345703e-01 6.5441042184829712e-01</leafValues></_>
        <_>
          <internalNodes>
            0 -1 758 1.0636354982852936e-01</internalNodes>
          <leafValues>
            -9.3379676342010498e-02 6.8359494209289551e-01</leafValues></_>
        <_>
          <internalNodes>
            0 -1 393 -5.8715529739856720e-02</internalNodes>
          <leafValues>
            5.3573101758956909e-01 -1.4753121137619019e-01</leafValues></_>
        <_>
          <internalNodes>
            0 -1 164 1.1303161270916462e-02</internalNodes>
          <leafValues>
            1.4401565492153168e-01 -5.1019555330276489e-01</leafValues></_>
        <_>
          <internalNodes>
            0 -1 357 -2.8070767875760794e-03</internalNodes>
          <leafValues>
            5.0460213422775269e-01 -1.0814868658781052e-01</leafValues></_>
        <_>
          <internalNodes>
            0 -1 248 -1.1303250212222338e-03</internalNodes>
          <leafValues>
            4.0760314464569092e-01 -1.2892834842205048e-01</leafValues></_>
        <_>
          <internalNodes>
            0 -1 87 1.3167839497327805e-03</internalNodes>
          <leafValues>
            1.1305561661720276e-01 -5.1226907968521118e-01</leafValues></_>
        <_>
          <internalNodes>
            0 -1 270 1.8751615658402443e-02</internalNodes>
          <leafValues>
            7.1077473461627960e-02 -6.3307356834411621e-01</leafValues></_>
        <_>
          <internalNodes>
            0 -1 876 4.3365763849578798e-04</internalNodes>
          <leafValues>
            1.0416375845670700e-01 -4.5570185780525208e-01</leafValues></_>
        <_>
          <internalNodes>
            0 -1 876 -2.9273665859363973e-04</internalNodes>
          <leafValues>
            -3.7153065204620361e-01 1.5121875703334808e-01</leafValues></_>
        <_>
          <internalNodes>
            0 -1 636 -3.3478918485343456e-03</internalNodes>
          <leafValues>
            4.2311504483222961e-01 -1.3727016746997833e-01</leafValues></_>
        <_>
          <internalNodes>
            0 -1 770 -5.9231277555227280e-04</internalNodes>
          <leafValues>
            2.5000667572021484e-01 -2.0307916402816772e-01</leafValues></_>
        <_>
          <internalNodes>
            0 -1 158 -8.0100074410438538e-02</internalNodes>
          <leafValues>
            6.3810420036315918e-01 -8.3706453442573547e-02</leafValues></_></weakClassifiers></_>
    <!-- stage 2 -->
    <_>
      <maxWeakCount>24</maxWeakCount>
      <stageThreshold>-1.7383553981781006e+00</stageThreshold>
      <weakClassifiers>
        <_>
          <internalNodes>
            0 -1 385 -1.8148010969161987e-01</internalNodes>
          <leafValues>
            7.8388392925262451e-01 -6.3114148378372192e-01</leafValues></_>
        <_>
          <internalNodes>
            0 -1 26 -1.2408903241157532e-01</internalNodes>
          <leafValues>
            5.2633237838745117e-01 -2.8683099150657654e-01</leafValues></_>
        <_>
          <internalNodes>
            0 -1 142 -1.5201689302921295e-01</internalNodes>
          <leafValues>
            6.1012864112854004e-01 -1.3725546002388000e-01</leafValues></_>
        <_>
          <internalNodes>
            0 -1 489 -1.9023761851713061e-03</internalNodes>
          <leafValues>
            5.5508351325988770e-01 -1.4375944435596466e-01</leafValues></_>
        <_>
          <internalNodes>
            0 -1 761 1.2378540635108948e-01</internalNodes>
          <leafValues>
            -1.0351333767175674e-01 6.2878757715225220e-01</leafValues></_>
        <_>
          <internalNodes>
            0 -1 560 -5.6423223577439785e-04</internalNodes>
          <leafValues>
            3.2868623733520508e-01 -2.0718099176883698e-01</leafValues></_>
        <_>
          <internalNodes>
            0 -1 606 -9.3829107936471701e-04</internalNodes>
          <leafValues>
            1.7667441070079803e-01 -3.5671269893646240e-01</leafValues></_>
        <_>
          <internalNodes>
            0 -1 182 -3.9327528327703476e-02</internalNodes>
          <leafValues>
            2.4100551009178162e-01 -2.7971720695495605e-01</leafValues></_>
        <_>
          <internalNodes>
            0 -1 376 5.7592219673097134e-04</internalNodes>
          <leafValues>
            -2.0884254574775696e-01 2.9525530338287354e-01</leafValues></_>
        <_>
          <internalNodes>
            0 -1 735 7.0415553636848927e-03</internalNodes>
          <leafValues>
            -6.3361436128616333e-02 5.8123838901519775e-01</leafValues></_>
        <_>
          <internalNodes>
            0 -1 247 -1.6254400834441185e-03</internalNodes>
          <leafValues>
            5.1013064384460449e-01 -1.0660195350646973e-01</leafValues></_>
        <_>
          <internalNodes>
            0 -1 328 -4.1856756433844566e-04</internalNodes>
          <leafValues>
            -4.4578734040260315e-01 1.2625059485435486e-01</leafValues></_>
        <_>
          <internalNodes>
            0 -1 328 3.0239258194342256e-04</internalNodes>
          <leafValues>
            1.3469721376895905e-01 -3.7119069695472717e-01</leafValues></_>
        <_>
          <internalNodes>
            0 -1 532 -2.5228587910532951e-03</internalNodes>
          <leafValues>
            2.9234212636947632e-01 -1.6916604340076447e-01</leafValues></_>
        <_>
          <internalNodes>
            0 -1 279 -6.8720271810889244e-03</internalNodes>
          <leafValues>
            5.2400451898574829e-01 -8.2794226706027985e-02</leafValues></_>
        <_>
          <internalNodes>
            0 -1 890 4.1911369189620018e-03</internalNodes>
          <leafValues>
            1.1072474718093872e-01 -4.2717429995536804e-01</leafValues></_>
        <_>
          <internalNodes>
            0 -1 290 -4.1952580213546753e-02</internalNodes>
          <leafValues>
            -8.4094715118408203e-01 4.6652477234601974e-02</leafValues></_>
        <_>
          <internalNodes>
            0 -1 894 -3.9667083183303475e-04</internalNodes>
          <leafValues>
            -3.8702422380447388e-01 1.0340309143066406e-01</leafValues></_>
        <_>
          <internalNodes>
            0 -1 804 1.7816834151744843e-02</internalNodes>
          <leafValues>
            -8.5029602050781250e-02 4.7184738516807556e-01</leafValues></_>
        <_>
          <internalNodes>
            0 -1 559 -3.1736013479530811e-03</internalNodes>
          <leafValues>
            3.2701694965362549e-01 -1.4430235326290131e-01</leafValues></_>
        <_>
          <internalNodes>
            0 -1 882 -1.8828602042049170e-03</internalNodes>
          <leafValues>
            -4.6522071957588196e-01 9.5059446990489960e-02</leafValues></_>
        <_>
          <internalNodes>
            0 -1 612 -3.8046124391257763e-03</internalNodes>
          <leafValues>
            3.4073796868324280e-01 -1.3664363324642181e-01</leafValues></_>
        <_>
          <internalNodes>
            0 -1 330 -1.3079667091369629e-01</internalNodes>
          <leafValues>
            2.5556945800781250e-01 -1.9135613739490509e-01</leafValues></_>
        <_>
          <internalNodes>
            0 -1 873 9.8897621501237154e-04</internalNodes>
          <leafValues>
            1.4105598628520966e-01 -3.4644049406051636e-01</leafValues></_></weakClassifiers></_>
    <!-- stage 3 -->
    <_>
      <maxWeakCount>30</maxWeakCount>
      <stageThreshold>-1.7777456045150757e+00</stageThreshold>
      <weakClassifiers>
        <_>
          <internalNodes>
            0 -1 262 -2.5743496417999268e-01</internalNodes>
          <leafValues>
            6.5271228551864624e-01 -6.1210203170776367e-01</leafValues></_>
        <_>
          <internalNodes>
            0 -1 58 -1.5833818912506104e-01</internalNodes>
          <leafValues>
            3.3079424500465393e-01 -3.0266883969306946e-01</leafValues></_>
        <_>
          <internalNodes>
            0 -1 816 -1.3428245438262820e-03</internalNodes>
          <leafValues>
            4.8504245281219482e-01 -1.5753811597824097e-01</leafValues></_>
        <_>
          <internalNodes>
            0 -1 708 -3.2400740310549736e-03</internalNodes>
          <leafValues>
            3.7847009301185608e-01 -2.0759493112564087e-01</leafValues></_>
        <_>
          <internalNodes>
            0 -1 418 -1.9531804136931896e-03</internalNodes>
          <leafValues>
            4.0598848462104797e-01 -1.6376188397407532e-01</leafValues></_>
        <_>
          <internalNodes>
            0 -1 739 2.4538526777178049e-03</internalNodes>
          <leafValues>
            -1.4526134729385376e-01 4.6572020649909973e-01</leafValues></_>
        <_>
          <internalNodes>
            0 -1 596 -9.6028984989970922e-04</internalNodes>
          <leafValues>
            1.9316112995147705e-01 -2.8692224621772766e-01</leafValues></_>
        <_>
          <internalNodes>
            0 -1 624 -8.4123748820275068e-05</internalNodes>
          <leafValues>
            2.2988866269588470e-01 -2.6125034689903259e-01</leafValues></_>
        <_>
          <internalNodes>
            0 -1 440 -8.5670992732048035e-02</internalNodes>
          <leafValues>
            7.1889746189117432e-01 -7.0175044238567352e-02</leafValues></_>
        <_>
          <internalNodes>
            0 -1 89 2.8400051593780518e-01</internalNodes>
          <leafValues>
            -7.1662791073322296e-02 6.9015020132064819e-01</leafValues></_>
        <_>
          <internalNodes>
            0 -1 427 -1.4966870658099651e-03</internalNodes>
          <leafValues>
            4.1924014687538147e-01 -9.6474140882492065e-02</leafValues></_>
        <_>
          <internalNodes>
            0 -1 774 -5.2915725973434746e-05</internalNodes>
          <leafValues>
            2.0825240015983582e-01 -2.3502419888973236e-01</leafValues></_>
        <_>
          <internalNodes>
            0 -1 357 -3.8058515638113022e-03</internalNodes>
          <leafValues>
            4.5012584328651428e-01 -1.2220364063978195e-01</leafValues></_>
        <_>
          <internalNodes>
            0 -1 694 -3.9618887967662886e-05</internalNodes>
          <leafValues>
            2.1266210079193115e-01 -2.3107714951038361e-01</leafValues></_>
        <_>
          <internalNodes>
            0 -1 649 1.2908685021102428e-03</internalNodes>
          <leafValues>
            1.1140069365501404e-01 -4.4726791977882385e-01</leafValues></_>
        <_>
          <internalNodes>
            0 -1 536 -1.9047476816922426e-03</internalNodes>
          <leafValues>
            1.2900121510028839e-01 -3.3376863598823547e-01</leafValues></_>
        <_>
          <internalNodes>
            0 -1 234 -2.0864864345639944e-03</internalNodes>
          <leafValues>
            2.9006284475326538e-01 -1.5193884074687958e-01</leafValues></_>
        <_>
          <internalNodes>
            0 -1 689 -1.2266935300431214e-05</internalNodes>
          <leafValues>
            1.8603089451789856e-01 -2.5125780701637268e-01</leafValues></_>
        <_>
          <internalNodes>
            0 -1 598 -1.0793341789394617e-03</internalNodes>
          <leafValues>
            2.6542395353317261e-01 -1.8052886426448822e-01</leafValues></_>
        <_>
          <internalNodes>
            0 -1 105 -4.4945481931790709e-04</internalNodes>
          <leafValues>
            -4.1202279925346375e-01 1.0780516266822815e-01</leafValues></_>
        <_>
          <internalNodes>
            0 -1 502 1.7279575113207102e-03</internalNodes>
          <leafValues>
            -7.6011538505554199e-02 5.2022850513458252e-01</leafValues></_>
        <_>
          <internalNodes>
            0 -1 883 6.2768987845629454e-04</internalNodes>
          <leafValues>
            1.0095866024494171e-01 -4.4927737116813660e-01</leafValues></_>
        <_>
          <internalNodes>
            0 -1 514 -3.2212032238021493e-05</internalNodes>
          <leafValues>
            1.7976033687591553e-01 -2.1762080490589142e-01</leafValues></_>
        <_>
          <internalNodes>
            0 -1 773 2.3306660354137421e-02</internalNodes>
          <leafValues>
            -1.3706788420677185e-01 3.1361693143844604e-01</leafValues></_>
        <_>
          <internalNodes>
            0 -1 886 3.4813797101378441e-03</internalNodes>
          <leafValues>
            1.1442508548498154e-01 -3.5905760526657104e-01</leafValues></_>
        <_>
          <internalNodes>
            0 -1 870 -2.5380149018019438e-03</internalNodes>
          <leafValues>
            -4.6631410717964172e-01 8.1175483763217926e-02</leafValues></_>
        <_>
          <internalNodes>
            0 -1 281 -2.2729821503162384e-03</internalNodes>
          <leafValues>
            2.4668933451175690e-01 -1.5648627281188965e-01</leafValues></_>
        <_>
          <internalNodes>
            0 -1 334 3.6884844303131104e-04</internalNodes>
          <leafValues>
            1.8323570489883423e-01 -2.2451081871986389e-01</leafValues></_>
        <_>
          <internalNodes>
            0 -1 173 1.5171803534030914e-02</internalNodes>
          <leafValues>
            -5.4283726960420609e-02 6.9012784957885742e-01</leafValues></_>
        <_>
          <internalNodes>
            0 -1 545 -8.7485499680042267e-03</internalNodes>
          <leafValues>
            -9.0418243408203125e-01 4.8958670347929001e-02</leafValues></_></weakClassifiers></_>
    <!-- stage 4 -->
    <_>
      <maxWeakCount>35</maxWeakCount>
      <stageThreshold>-1.6346169710159302e+00</stageThreshold>
      <weakClassifiers>
        <_>
          <internalNodes>
            0 -1 331 -2.3829236626625061e-01</internalNodes>
          <leafValues>
            6.1692357063293457e-01 -5.6810629367828369e-01</leafValues></_>
        <_>
          <internalNodes>
            0 -1 94 -9.0342909097671509e-02</internalNodes>
          <leafValues>
            1.9682534039020538e-01 -3.7332826852798462e-01</leafValues></_>
        <_>
          <internalNodes>
            0 -1 763 -2.9143638908863068e-02</internalNodes>
          <leafValues>
            4.8741319775581360e-01 -1.3940127193927765e-01</leafValues></_>
        <_>
          <internalNodes>
            0 -1 759 4.1978019289672375e-03</internalNodes>
          <leafValues>
            -1.7876450717449188e-01 3.8182842731475830e-01</leafValues></_>
        <_>
          <internalNodes>
            0 -1 15 -6.9318145513534546e-02</internalNodes>
          <leafValues>
            4.9304839968681335e-01 -7.0157699286937714e-02</leafValues></_>
        <_>
          <internalNodes>
            0 -1 631 -6.3744792714715004e-03</internalNodes>
          <leafValues>
            3.8618808984756470e-01 -1.3225650787353516e-01</leafValues></_>
        <_>
          <internalNodes>
            0 -1 646 1.9393839174881577e-03</internalNodes>
          <leafValues>
            9.1234341263771057e-02 -4.8997983336448669e-01</leafValues></_>
        <_>
          <internalNodes>
            0 -1 531 1.1883904226124287e-03</internalNodes>
          <leafValues>
            -1.6068875789642334e-01 2.4900737404823303e-01</leafValues></_>
        <_>
          <internalNodes>
            0 -1 120 4.3920455500483513e-03</internalNodes>
          <leafValues>
            -1.7068587243556976e-01 2.3568542301654816e-01</leafValues></_>
        <_>
          <internalNodes>
            0 -1 197 -1.2620276212692261e-01</internalNodes>
          <leafValues>
            7.2853553295135498e-01 -6.6349066793918610e-02</leafValues></_>
        <_>
          <internalNodes>
            0 -1 309 -2.7805577701656148e-05</internalNodes>
          <leafValues>
            1.4338038861751556e-01 -2.8150790929794312e-01</leafValues></_>
        <_>
          <internalNodes>
            0 -1 711 -4.0402915328741074e-03</internalNodes>
          <leafValues>
            3.2782393693923950e-01 -1.2783306837081909e-01</leafValues></_>
        <_>
          <internalNodes>
            0 -1 665 5.5811358615756035e-03</internalNodes>
          <leafValues>
            -2.1658881008625031e-01 2.1204037964344025e-01</leafValues></_>
        <_>
          <internalNodes>
            0 -1 508 1.3753662351518869e-03</internalNodes>
          <leafValues>
            9.9345795810222626e-02 -3.8370183110237122e-01</leafValues></_>
        <_>
          <internalNodes>
            0 -1 607 -2.4723716080188751e-02</internalNodes>
          <leafValues>
            -8.0522447824478149e-01 5.4890729486942291e-02</leafValues></_>
        <_>
          <internalNodes>
            0 -1 67 -5.2585283992812037e-04</internalNodes>
          <leafValues>
            -4.1729238629341125e-01 8.3481714129447937e-02</leafValues></_>
        <_>
          <internalNodes>
            0 -1 176 -1.0226212441921234e-01</internalNodes>
          <leafValues>
            4.8009046912193298e-01 -9.1808371245861053e-02</leafValues></_>
        <_>
          <internalNodes>
            0 -1 32 8.5206031799316406e-03</internalNodes>
          <leafValues>
            -1.2568199634552002e-01 3.0219152569770813e-01</leafValues></_>
        <_>
          <internalNodes>
            0 -1 409 -3.8526947610080242e-03</internalNodes>
          <leafValues>
            1.5012568235397339e-01 -2.7444589138031006e-01</leafValues></_>
        <_>
          <internalNodes>
            0 -1 406 1.1499032843858004e-03</internalNodes>
          <leafValues>
            -1.3232846558094025e-01 3.1234318017959595e-01</leafValues></_>
        <_>
          <internalNodes>
            0 -1 428 -6.7186856176704168e-04</internalNodes>
          <leafValues>
            2.8375503420829773e-01 -1.2745346128940582e-01</leafValues></_>
        <_>
          <internalNodes>
            0 -1 578 -6.6001247614622116e-04</internalNodes>
          <leafValues>
            -3.5733750462532043e-01 1.1211152374744415e-01</leafValues></_>
        <_>
          <internalNodes>
            0 -1 305 3.5568231251090765e-03</internalNodes>
          <leafValues>
            -6.1615847051143646e-02 6.4757043123245239e-01</leafValues></_>
        <_>
          <internalNodes>
            0 -1 768 2.7671767398715019e-02</internalNodes>
          <leafValues>
            -1.3152381777763367e-01 2.9562279582023621e-01</leafValues></_>
        <_>
          <internalNodes>
            0 -1 788 9.5210061408579350e-04</internalNodes>
          <leafValues>
            1.1562230437994003e-01 -3.5749992728233337e-01</leafValues></_>
        <_>
          <internalNodes>
            0 -1 128 -1.5945544000715017e-03</internalNodes>
          <leafValues>
            4.0204513072967529e-01 -8.9119508862495422e-02</leafValues></_>
        <_>
          <internalNodes>
            0 -1 175 9.5827656332403421e-04</internalNodes>
          <leafValues>
            8.8103525340557098e-02 -4.2283192276954651e-01</leafValues></_>
        <_>
          <internalNodes>
            0 -1 342 -1.8190357368439436e-03</internalNodes>
          <leafValues>
            1.7550927400588989e-01 -2.0942707359790802e-01</leafValues></_>
        <_>
          <internalNodes>
            0 -1 880 2.8036069124937057e-03</internalNodes>
          <leafValues>
            1.0632646083831787e-01 -3.3789867162704468e-01</leafValues></_>
        <_>
          <internalNodes>
            0 -1 630 1.2682290980592370e-03</internalNodes>
          <leafValues>
            -1.4556725323200226e-01 2.5703307986259460e-01</leafValues></_>
        <_>
          <internalNodes>
            0 -1 825 5.3937705233693123e-03</internalNodes>
          <leafValues>
            9.6532545983791351e-02 -3.7207859754562378e-01</leafValues></_>
        <_>
          <internalNodes>
            0 -1 402 2.4412050843238831e-02</internalNodes>
          <leafValues>
            3.9516340941190720e-02 -8.0720335245132446e-01</leafValues></_>
        <_>
          <internalNodes>
            0 -1 858 4.1964813135564327e-04</internalNodes>
          <leafValues>
            8.3323098719120026e-02 -3.5214036703109741e-01</leafValues></_>
        <_>
          <internalNodes>
            0 -1 552 -1.8187658861279488e-03</internalNodes>
          <leafValues>
            3.8703453540802002e-01 -8.9618831872940063e-02</leafValues></_>
        <_>
          <internalNodes>
            0 -1 475 -6.3853419851511717e-04</internalNodes>
          <leafValues>
            1.1333476006984711e-01 -3.2919529080390930e-01</leafValues></_></weakClassifiers></_>
    <!-- stage 5 -->
    <_>
      <maxWeakCount>39</maxWeakCount>
      <stageThreshold>-1.6526273488998413e+00</stageThreshold>
      <weakClassifiers>
        <_>
          <internalNodes>
            0 -1 332 -3.4393456578254700e-01</internalNodes>
          <leafValues>
            7.5107705593109131e-01 -5.0364631414413452e-01</leafValues></_>
        <_>
          <internalNodes>
            0 -1 18 -2.1205246448516846e-01</internalNodes>
          <leafValues>
            3.9084562659263611e-01 -2.1731671690940857e-01</leafValues></_>
        <_>
          <internalNodes>
            0 -1 770 -1.5743104740977287e-03</internalNodes>
          <leafValues>
            3.1522023677825928e-01 -1.9618771970272064e-01</leafValues></_>
        <_>
          <internalNodes>
            0 -1 212 1.5937219141051173e-03</internalNodes>
          <leafValues>
            -1.2173003703355789e-01 3.9368754625320435e-01</leafValues></_>
        <_>
          <internalNodes>
            0 -1 222 -2.5688445568084717e-01</internalNodes>
          <leafValues>
            3.2211863994598389e-01 -1.5102715790271759e-01</leafValues></_>
        <_>
          <internalNodes>
            0 -1 712 -4.2804749682545662e-03</internalNodes>
          <leafValues>
            5.0806337594985962e-01 -8.6561270058155060e-02</leafValues></_>
        <_>
          <internalNodes>
            0 -1 423 -1.8883690936490893e-03</internalNodes>
          <leafValues>
            3.2068303227424622e-01 -1.3232880830764771e-01</leafValues></_>
        <_>
          <internalNodes>
            0 -1 490 -2.2958111949265003e-03</internalNodes>
          <leafValues>
            3.0449646711349487e-01 -1.2799438834190369e-01</leafValues></_>
        <_>
          <internalNodes>
            0 -1 232 -1.5129852294921875e-01</internalNodes>
          <leafValues>
            6.2776553630828857e-01 -5.7125274091959000e-02</leafValues></_>
        <_>
          <internalNodes>
            0 -1 298 -7.1141980588436127e-02</internalNodes>
          <leafValues>
            -6.8620872497558594e-01 6.5867803990840912e-02</leafValues></_>
        <_>
          <internalNodes>
            0 -1 5 -5.6511401198804379e-03</internalNodes>
          <leafValues>
            -4.7823265194892883e-01 8.0469995737075806e-02</leafValues></_>
        <_>
          <internalNodes>
            0 -1 275 -5.4901931434869766e-03</internalNodes>
          <leafValues>
            5.3382396697998047e-01 -6.7948848009109497e-02</leafValues></_>
        <_>
          <internalNodes>
            0 -1 726 1.2952485680580139e-01</internalNodes>
          <leafValues>
            -6.7903026938438416e-02 6.1540299654006958e-01</leafValues></_>
        <_>
          <internalNodes>
            0 -1 532 -7.0256163598969579e-04</internalNodes>
          <leafValues>
            1.8322414159774780e-01 -2.2626435756683350e-01</leafValues></_>
        <_>
          <internalNodes>
            0 -1 0 7.5313460547477007e-04</internalNodes>
          <leafValues>
            1.1209499835968018e-01 -3.5593354701995850e-01</leafValues></_>
        <_>
          <internalNodes>
            0 -1 1 -1.3948400737717748e-03</internalNodes>
          <leafValues>
            -3.9461591839790344e-01 1.0818498581647873e-01</leafValues></_>
        <_>
          <internalNodes>
            0 -1 706 -1.9698324613273144e-03</internalNodes>
          <leafValues>
            2.4034322798252106e-01 -1.4553375542163849e-01</leafValues></_>
        <_>
          <internalNodes>
            0 -1 875 9.4217779114842415e-03</internalNodes>
          <leafValues>
            1.1386132240295410e-01 -3.1536009907722473e-01</leafValues></_>
        <_>
          <internalNodes>
            0 -1 399 -4.0399320423603058e-02</internalNodes>
          <leafValues>
            1.7806124687194824e-01 -1.9608402252197266e-01</leafValues></_>
        <_>
          <internalNodes>
            0 -1 448 1.4382502995431423e-03</internalNodes>
          <leafValues>
            -1.6066575050354004e-01 2.6553806662559509e-01</leafValues></_>
        <_>
          <internalNodes>
            0 -1 558 8.2381360698491335e-04</internalNodes>
          <leafValues>
            1.7126378417015076e-01 -2.4180117249488831e-01</leafValues></_>
        <_>
          <internalNodes>
            0 -1 424 1.3575288467109203e-03</internalNodes>
          <leafValues>
            -1.2656785547733307e-01 3.1900379061698914e-01</leafValues></_>
        <_>
          <internalNodes>
            0 -1 343 8.3316341042518616e-03</internalNodes>
          <leafValues>
            1.0092283785343170e-01 -3.9893171191215515e-01</leafValues></_>
        <_>
          <internalNodes>
            0 -1 462 -2.5864159397315234e-05</internalNodes>
          <leafValues>
            1.6693598031997681e-01 -2.0075522363185883e-01</leafValues></_>
        <_>
          <internalNodes>
            0 -1 801 3.5607002675533295e-02</internalNodes>
          <leafValues>
            -7.2760410606861115e-02 4.8981866240501404e-01</leafValues></_>
        <_>
          <internalNodes>
            0 -1 357 -3.5044786054641008e-03</internalNodes>
          <leafValues>
            3.9866870641708374e-01 -9.5850467681884766e-02</leafValues></_>
        <_>
          <internalNodes>
            0 -1 718 -2.3151156492531300e-03</internalNodes>
          <leafValues>
            -5.9460657835006714e-01 6.6412523388862610e-02</leafValues></_>
        <_>
          <internalNodes>
            0 -1 841 4.4029517448507249e-04</internalNodes>
          <leafValues>
            8.6212411522865295e-02 -3.7907859683036804e-01</leafValues></_>
        <_>
          <internalNodes>
            0 -1 622 -1.5132138505578041e-03</internalNodes>
          <leafValues>
            1.8673871457576752e-01 -2.0341503620147705e-01</leafValues></_>
        <_>
          <internalNodes>
            0 -1 235 -1.9868638366460800e-02</internalNodes>
          <leafValues>
            -6.8379783630371094e-01 5.0057213753461838e-02</leafValues></_>
        <_>
          <internalNodes>
            0 -1 485 1.8910726532340050e-02</internalNodes>
          <leafValues>
            2.8341002762317657e-02 -8.9441710710525513e-01</leafValues></_>
        <_>
          <internalNodes>
            0 -1 667 9.6652936190366745e-03</internalNodes>
          <leafValues>
            -8.0616369843482971e-02 4.8729240894317627e-01</leafValues></_>
        <_>
          <internalNodes>
            0 -1 501 -2.5548911653459072e-03</internalNodes>
          <leafValues>
            4.6766433119773865e-01 -6.4123742282390594e-02</leafValues></_>
        <_>
          <internalNodes>
            0 -1 596 -9.5316901570186019e-04</internalNodes>
          <leafValues>
            1.3357940316200256e-01 -2.6349705457687378e-01</leafValues></_>
        <_>
          <internalNodes>
            0 -1 513 -4.6706772991456091e-04</internalNodes>
          <leafValues>
            2.2702728211879730e-01 -1.5000629425048828e-01</leafValues></_>
        <_>
          <internalNodes>
            0 -1 40 -5.4578972049057484e-04</internalNodes>
          <leafValues>
            -3.9007592201232910e-01 9.2530101537704468e-02</leafValues></_>
        <_>
          <internalNodes>
            0 -1 624 -1.3093932466290426e-05</internalNodes>
          <leafValues>
            1.5449187159538269e-01 -2.1529813110828400e-01</leafValues></_>
        <_>
          <internalNodes>
            0 -1 387 -3.0239861458539963e-02</internalNodes>
          <leafValues>
            3.5787609219551086e-01 -1.0396443307399750e-01</leafValues></_>
        <_>
          <internalNodes>
            0 -1 755 1.4008157886564732e-03</internalNodes>
          <leafValues>
            7.3787204921245575e-02 -4.4899696111679077e-01</leafValues></_></weakClassifiers></_>
    <!-- stage 6 -->
    <_>
      <maxWeakCount>49</maxWeakCount>
      <stageThreshold>-1.6746193170547485e+00</stageThreshold>
      <weakClassifiers>
        <_>
          <internalNodes>
            0 -1 332 -3.5577952861785889e-01</internalNodes>
          <leafValues>
            6.7354965209960938e-01 -4.8667266964912415e-01</leafValues></_>
        <_>
          <internalNodes>
            0 -1 95 -4.4657777994871140e-02</internalNodes>
          <leafValues>
            2.6366138458251953e-01 -2.5510647892951965e-01</leafValues></_>
        <_>
          <internalNodes>
            0 -1 815 -4.2191827669739723e-03</internalNodes>
          <leafValues>
            2.7908322215080261e-01 -1.7586401104927063e-01</leafValues></_>
        <_>
          <internalNodes>
            0 -1 422 -8.0379331484436989e-04</internalNodes>
          <leafValues>
            3.4573593735694885e-01 -9.9657610058784485e-02</leafValues></_>
        <_>
          <internalNodes>
            0 -1 347 -2.0710537210106850e-03</internalNodes>
          <leafValues>
            2.4958150088787079e-01 -1.7739707231521606e-01</leafValues></_>
        <_>
          <internalNodes>
            0 -1 85 3.2179192639887333e-03</internalNodes>
          <leafValues>
            1.0556163638830185e-01 -3.7124869227409363e-01</leafValues></_>
        <_>
          <internalNodes>
            0 -1 640 -1.6763391904532909e-03</internalNodes>
          <leafValues>
            3.5754328966140747e-01 -7.9809516668319702e-02</leafValues></_>
        <_>
          <internalNodes>
            0 -1 606 -1.8880159768741578e-04</internalNodes>
          <leafValues>
            8.1715010106563568e-02 -3.9972099661827087e-01</leafValues></_>
        <_>
          <internalNodes>
            0 -1 280 -8.1038996577262878e-03</internalNodes>
          <leafValues>
            2.0465536415576935e-01 -1.9117848575115204e-01</leafValues></_>
        <_>
          <internalNodes>
            0 -1 493 6.9555616937577724e-04</internalNodes>
          <leafValues>
            1.9081196188926697e-01 -2.5195255875587463e-01</leafValues></_>
        <_>
          <internalNodes>
            0 -1 584 2.1014673635363579e-02</internalNodes>
          <leafValues>
            -1.0174658894538879e-01 4.4541612267494202e-01</leafValues></_>
        <_>
          <internalNodes>
            0 -1 198 -1.4909058809280396e-01</internalNodes>
          <leafValues>
            6.9387763738632202e-01 -4.8338133841753006e-02</leafValues></_>
        <_>
          <internalNodes>
            0 -1 683 2.2645728313364089e-04</internalNodes>
          <leafValues>
            -3.8996976613998413e-01 1.0480488836765289e-01</leafValues></_>
        <_>
          <internalNodes>
            0 -1 482 -5.1574232056736946e-03</internalNodes>
          <leafValues>
            3.7748473882675171e-01 -1.1021665483713150e-01</leafValues></_>
        <_>
          <internalNodes>
            0 -1 447 -6.6755013540387154e-03</internalNodes>
          <leafValues>
            2.3932659626007080e-01 -1.4077751338481903e-01</leafValues></_>
        <_>
          <internalNodes>
            0 -1 452 -4.5641828328371048e-02</internalNodes>
          <leafValues>
            -6.8254578113555908e-01 5.1232744008302689e-02</leafValues></_>
        <_>
          <internalNodes>
            0 -1 382 5.1871137693524361e-03</internalNodes>
          <leafValues>
            8.9673280715942383e-02 -3.5726112127304077e-01</leafValues></_>
        <_>
          <internalNodes>
            0 -1 766 -2.9649704229086637e-03</internalNodes>
          <leafValues>
            2.7006706595420837e-01 -1.2111552804708481e-01</leafValues></_>
        <_>
          <internalNodes>
            0 -1 871 -5.2961095934733748e-04</internalNodes>
          <leafValues>
            -3.1255283951759338e-01 1.0782498866319656e-01</leafValues></_>
        <_>
          <internalNodes>
            0 -1 751 -3.9107422344386578e-03</internalNodes>
          <leafValues>
            3.0546715855598450e-01 -9.6803061664104462e-02</leafValues></_>
        <_>
          <internalNodes>
            0 -1 438 -2.1105052903294563e-02</internalNodes>
          <leafValues>
            5.7039916515350342e-01 -5.8523833751678467e-02</leafValues></_>
        <_>
          <internalNodes>
            0 -1 350 -1.0444197803735733e-02</internalNodes>
          <leafValues>
            3.7545362114906311e-01 -8.6390785872936249e-02</leafValues></_>
        <_>
          <internalNodes>
            0 -1 47 6.8885408341884613e-02</internalNodes>
          <leafValues>
            -4.9505203962326050e-02 6.4788001775741577e-01</leafValues></_>
        <_>
          <internalNodes>
            0 -1 51 1.6600959934294224e-03</internalNodes>
          <leafValues>
            8.9758917689323425e-02 -3.6769470572471619e-01</leafValues></_>
        <_>
          <internalNodes>
            0 -1 340 -2.4692069739103317e-02</internalNodes>
          <leafValues>
            -7.5934499502182007e-01 3.5299897193908691e-02</leafValues></_>
        <_>
          <internalNodes>
            0 -1 421 -9.7267038654536009e-04</internalNodes>
          <leafValues>
            2.6414132118225098e-01 -1.2958939373493195e-01</leafValues></_>
        <_>
          <internalNodes>
            0 -1 227 2.7284450829029083e-02</internalNodes>
          <leafValues>
            4.2582802474498749e-02 -7.3856455087661743e-01</leafValues></_>
        <_>
          <internalNodes>
            0 -1 639 -1.9070865586400032e-02</internalNodes>
          <leafValues>
            2.9722344875335693e-01 -1.1345172673463821e-01</leafValues></_>
        <_>
          <internalNodes>
            0 -1 895 -6.9369690027087927e-04</internalNodes>
          <leafValues>
            -4.1473612189292908e-01 7.4474260210990906e-02</leafValues></_>
        <_>
          <internalNodes>
            0 -1 335 2.9046079143881798e-03</internalNodes>
          <leafValues>
            -8.9982867240905762e-02 3.4427917003631592e-01</leafValues></_>
        <_>
          <internalNodes>
            0 -1 510 -6.2683178111910820e-04</internalNodes>
          <leafValues>
            -3.6070924997329712e-01 9.1724589467048645e-02</leafValues></_>
        <_>
          <internalNodes>
            0 -1 893 3.9299726486206055e-03</internalNodes>
          <leafValues>
            7.7184386551380157e-02 -3.7098282575607300e-01</leafValues></_>
        <_>
          <internalNodes>
            0 -1 126 -2.0796261727809906e-01</internalNodes>
          <leafValues>
            -6.4697867631912231e-01 4.3687652796506882e-02</leafValues></_>
        <_>
          <internalNodes>
            0 -1 8 -2.2835719585418701e-01</internalNodes>
          <leafValues>
            1.8243470788002014e-01 -1.8861015141010284e-01</leafValues></_>
        <_>
          <internalNodes>
            0 -1 746 -1.0245500598102808e-03</internalNodes>
          <leafValues>
            2.6210188865661621e-01 -1.1705952882766724e-01</leafValues></_>
        <_>
          <internalNodes>
            0 -1 561 -1.3535527978092432e-03</internalNodes>
          <leafValues>
            2.6227396726608276e-01 -1.0506392270326614e-01</leafValues></_>
        <_>
          <internalNodes>
            0 -1 812 8.0621545203030109e-04</internalNodes>
          <leafValues>
            8.0305732786655426e-02 -3.8377511501312256e-01</leafValues></_>
        <_>
          <internalNodes>
            0 -1 477 2.0190883427858353e-02</internalNodes>
          <leafValues>
            3.9587788283824921e-02 -6.7574447393417358e-01</leafValues></_>
        <_>
          <internalNodes>
            0 -1 544 1.8932728562504053e-04</internalNodes>
          <leafValues>
            -2.1841035783290863e-01 1.4817075431346893e-01</leafValues></_>
        <_>
          <internalNodes>
            0 -1 655 -2.0708827301859856e-02</internalNodes>
          <leafValues>
            3.9839616417884827e-01 -8.5748188197612762e-02</leafValues></_>
        <_>
          <internalNodes>
            0 -1 543 1.6692839562892914e-03</internalNodes>
          <leafValues>
            7.1866393089294434e-02 -4.0720525383949280e-01</leafValues></_>
        <_>
          <internalNodes>
            0 -1 355 -2.1217591129243374e-03</internalNodes>
          <leafValues>
            3.7792414426803589e-01 -9.0440876781940460e-02</leafValues></_>
        <_>
          <internalNodes>
            0 -1 833 -1.9185605924576521e-03</internalNodes>
          <leafValues>
            2.9780051112174988e-01 -9.1256134212017059e-02</leafValues></_>
        <_>
          <internalNodes>
            0 -1 722 -2.6570195332169533e-03</internalNodes>
          <leafValues>
            -3.7179672718048096e-01 7.8812003135681152e-02</leafValues></_>
        <_>
          <internalNodes>
            0 -1 101 -4.3332455679774284e-03</internalNodes>
          <leafValues>
            2.2425240278244019e-01 -1.3447767496109009e-01</leafValues></_>
        <_>
          <internalNodes>
            0 -1 68 3.0207011848688126e-02</internalNodes>
          <leafValues>
            -9.3436732888221741e-02 3.4516024589538574e-01</leafValues></_>
        <_>
          <internalNodes>
            0 -1 258 1.0504181263968349e-03</internalNodes>
          <leafValues>
            1.0102313756942749e-01 -2.7132374048233032e-01</leafValues></_>
        <_>
          <internalNodes>
            0 -1 471 1.2846106073993724e-05</internalNodes>
          <leafValues>
            -1.4881829917430878e-01 1.7257604002952576e-01</leafValues></_>
        <_>
          <internalNodes>
            0 -1 285 1.2722394429147243e-02</internalNodes>
          <leafValues>
            4.7742635011672974e-02 -5.6269758939743042e-01</leafValues></_></weakClassifiers></_>
    <!-- stage 7 -->
    <_>
      <maxWeakCount>45</maxWeakCount>
      <stageThreshold>-1.5871146917343140e+00</stageThreshold>
      <weakClassifiers>
        <_>
          <internalNodes>
            0 -1 144 -3.6240702867507935e-01</internalNodes>
          <leafValues>
            3.7358489632606506e-01 -4.9851703643798828e-01</leafValues></_>
        <_>
          <internalNodes>
            0 -1 21 -3.0440056324005127e-01</internalNodes>
          <leafValues>
            4.0598863363265991e-01 -1.8481965363025665e-01</leafValues></_>
        <_>
          <internalNodes>
            0 -1 802 -5.2831947803497314e-02</internalNodes>
          <leafValues>
            5.4993432760238647e-01 -1.1961108446121216e-01</leafValues></_>
        <_>
          <internalNodes>
            0 -1 596 -6.6704233177006245e-05</internalNodes>
          <leafValues>
            1.8276911973953247e-01 -3.6307656764984131e-01</leafValues></_>
        <_>
          <internalNodes>
            0 -1 118 -3.9323484525084496e-03</internalNodes>
          <leafValues>
            5.0893878936767578e-01 -1.0224164277315140e-01</leafValues></_>
        <_>
          <internalNodes>
            0 -1 166 -4.4905282557010651e-02</internalNodes>
          <leafValues>
            5.8896434307098389e-01 -8.0514520406723022e-02</leafValues></_>
        <_>
          <internalNodes>
            0 -1 867 8.7139233946800232e-03</internalNodes>
          <leafValues>
            1.8255011737346649e-01 -2.8700891137123108e-01</leafValues></_>
        <_>
          <internalNodes>
            0 -1 184 -2.2129798308014870e-03</internalNodes>
          <leafValues>
            2.6204860210418701e-01 -1.7844474315643311e-01</leafValues></_>
        <_>
          <internalNodes>
            0 -1 678 -1.2776664334523957e-05</internalNodes>
          <leafValues>
            2.0493951439857483e-01 -1.9596064090728760e-01</leafValues></_>
        <_>
          <internalNodes>
            0 -1 441 -2.5066183879971504e-02</internalNodes>
          <leafValues>
            4.5385983586311340e-01 -1.1728710681200027e-01</leafValues></_>
        <_>
          <internalNodes>
            0 -1 670 -5.6774681434035301e-04</internalNodes>
          <leafValues>
            2.4781343340873718e-01 -1.4932797849178314e-01</leafValues></_>
        <_>
          <internalNodes>
            0 -1 509 1.8232467118650675e-03</internalNodes>
          <leafValues>
            1.1664671450853348e-01 -4.0997251868247986e-01</leafValues></_>
        <_>
          <internalNodes>
            0 -1 742 -1.1849694419652224e-03</internalNodes>
          <leafValues>
            2.6172402501106262e-01 -1.4486949145793915e-01</leafValues></_>
        <_>
          <internalNodes>
            0 -1 309 -5.8409455232322216e-04</internalNodes>
          <leafValues>
            1.4813257753849030e-01 -2.4280166625976562e-01</leafValues></_>
        <_>
          <internalNodes>
            0 -1 803 -5.8942101895809174e-04</internalNodes>
          <leafValues>
            2.3303927481174469e-01 -1.6371519863605499e-01</leafValues></_>
        <_>
          <internalNodes>
            0 -1 887 6.6291261464357376e-04</internalNodes>
          <leafValues>
            8.0462463200092316e-02 -4.3752557039260864e-01</leafValues></_>
        <_>
          <internalNodes>
            0 -1 226 -3.4434664994478226e-03</internalNodes>
          <leafValues>
            2.6437759399414062e-01 -1.2776352465152740e-01</leafValues></_>
        <_>
          <internalNodes>
            0 -1 536 -2.0197834819555283e-02</internalNodes>
          <leafValues>
            -6.0268330574035645e-01 5.6386038661003113e-02</leafValues></_>
        <_>
          <internalNodes>
            0 -1 54 -1.0107228299602866e-03</internalNodes>
          <leafValues>
            -3.3933511376380920e-01 8.9953429996967316e-02</leafValues></_>
        <_>
          <internalNodes>
            0 -1 480 -7.6236007735133171e-03</internalNodes>
          <leafValues>
            7.3993611335754395e-01 -4.4015731662511826e-02</leafValues></_>
        <_>
          <internalNodes>
            0 -1 550 1.2094324920326471e-03</internalNodes>
          <leafValues>
            9.9755607545375824e-02 -4.1101369261741638e-01</leafValues></_>
        <_>
          <internalNodes>
            0 -1 157 -5.7210654020309448e-02</internalNodes>
          <leafValues>
            -6.4506465196609497e-01 4.5649383217096329e-02</leafValues></_>
        <_>
          <internalNodes>
            0 -1 183 -3.5056106746196747e-02</internalNodes>
          <leafValues>
            2.4129208922386169e-01 -1.4074687659740448e-01</leafValues></_>
        <_>
          <internalNodes>
            0 -1 765 4.9538607709109783e-04</internalNodes>
          <leafValues>
            -1.9082655012607574e-01 1.6862678527832031e-01</leafValues></_>
        <_>
          <internalNodes>
            0 -1 252 -4.5503731817007065e-03</internalNodes>
          <leafValues>
            2.7611553668975830e-01 -1.1861786246299744e-01</leafValues></_>
        <_>
          <internalNodes>
            0 -1 856 -3.6826357245445251e-03</internalNodes>
          <leafValues>
            -3.6136332154273987e-01 9.8822645843029022e-02</leafValues></_>
        <_>
          <internalNodes>
            0 -1 743 -3.0414932407438755e-03</internalNodes>
          <leafValues>
            4.1264942288398743e-01 -8.8158831000328064e-02</leafValues></_>
        <_>
          <internalNodes>
            0 -1 777 -1.3760232832282782e-05</internalNodes>
          <leafValues>
            2.1990442276000977e-01 -1.3792668282985687e-01</leafValues></_>
        <_>
          <internalNodes>
            0 -1 718 -1.2844499433413148e-03</internalNodes>
          <leafValues>
            -5.2857661247253418e-01 7.4554540216922760e-02</leafValues></_>
        <_>
          <internalNodes>
            0 -1 874 -1.0081521468237042e-03</internalNodes>
          <leafValues>
            -3.3452278375625610e-01 8.4339208900928497e-02</leafValues></_>
        <_>
          <internalNodes>
            0 -1 564 3.4347635228186846e-03</internalNodes>
          <leafValues>
            -8.6619764566421509e-02 3.5674956440925598e-01</leafValues></_>
        <_>
          <internalNodes>
            0 -1 466 1.9930414855480194e-03</internalNodes>
          <leafValues>
            -1.5876309573650360e-01 1.9657042622566223e-01</leafValues></_>
        <_>
          <internalNodes>
            0 -1 842 -1.2270658771740273e-05</internalNodes>
          <leafValues>
            1.9000039994716644e-01 -1.7113403975963593e-01</leafValues></_>
        <_>
          <internalNodes>
            0 -1 205 2.0283740013837814e-03</internalNodes>
          <leafValues>
            8.4791153669357300e-02 -3.4204632043838501e-01</leafValues></_>
        <_>
          <internalNodes>
            0 -1 371 2.8605666011571884e-04</internalNodes>
          <leafValues>
            -1.3204532861709595e-01 2.3602035641670227e-01</leafValues></_>
        <_>
          <internalNodes>
            0 -1 66 8.5095234680920839e-04</internalNodes>
          <leafValues>
            6.5158739686012268e-02 -4.4832792878150940e-01</leafValues></_>
        <_>
          <internalNodes>
            0 -1 614 -4.2474595829844475e-03</internalNodes>
          <leafValues>
            -7.2573882341384888e-01 3.6179352551698685e-02</leafValues></_>
        <_>
          <internalNodes>
            0 -1 429 1.5685710823163390e-03</internalNodes>
          <leafValues>
            -1.2746517360210419e-01 2.5216367840766907e-01</leafValues></_>
        <_>
          <internalNodes>
            0 -1 635 -1.4258481314755045e-05</internalNodes>
          <leafValues>
            1.6997468471527100e-01 -1.7516116797924042e-01</leafValues></_>
        <_>
          <internalNodes>
            0 -1 877 -1.8316651694476604e-03</internalNodes>
          <leafValues>
            -4.8416772484779358e-01 5.7573575526475906e-02</leafValues></_>
        <_>
          <internalNodes>
            0 -1 632 -5.3108381107449532e-03</internalNodes>
          <leafValues>
            2.5566530227661133e-01 -1.1442032456398010e-01</leafValues></_>
        <_>
          <internalNodes>
            0 -1 627 2.1503528114408255e-03</internalNodes>
          <leafValues>
            -7.8209869563579559e-02 3.6213329434394836e-01</leafValues></_>
        <_>
          <internalNodes>
            0 -1 536 -2.3419703356921673e-03</internalNodes>
          <leafValues>
            1.1153183132410049e-01 -2.8577750921249390e-01</leafValues></_>
        <_>
          <internalNodes>
            0 -1 657 -7.9639852046966553e-03</internalNodes>
          <leafValues>
            3.4264612197875977e-01 -1.0438138991594315e-01</leafValues></_>
        <_>
          <internalNodes>
            0 -1 728 -1.2357391824480146e-05</internalNodes>
          <leafValues>
            1.7848965525627136e-01 -1.6505818068981171e-01</leafValues></_></weakClassifiers></_>
    <!-- stage 8 -->
    <_>
      <maxWeakCount>54</maxWeakCount>
      <stageThreshold>-1.6360858678817749e+00</stageThreshold>
      <weakClassifiers>
        <_>
          <internalNodes>
            0 -1 392 -1.5733079612255096e-01</internalNodes>
          <leafValues>
            2.0899407565593719e-01 -5.3855800628662109e-01</leafValues></_>
        <_>
          <internalNodes>
            0 -1 830 8.7084136903285980e-03</internalNodes>
          <leafValues>
            -1.7741432785987854e-01 3.3875986933708191e-01</leafValues></_>
        <_>
          <internalNodes>
            0 -1 212 1.1314179282635450e-03</internalNodes>
          <leafValues>
            -1.5162129700183868e-01 3.2036900520324707e-01</leafValues></_>
        <_>
          <internalNodes>
            0 -1 277 -5.9989662840962410e-03</internalNodes>
          <leafValues>
            3.8387435674667358e-01 -1.0385784506797791e-01</leafValues></_>
        <_>
          <internalNodes>
            0 -1 13 -1.0830803960561752e-01</internalNodes>
          <leafValues>
            3.1184992194175720e-01 -1.1884027719497681e-01</leafValues></_>
        <_>
          <internalNodes>
            0 -1 133 -8.4048658609390259e-02</internalNodes>
          <leafValues>
            5.7931530475616455e-01 -6.6901870071887970e-02</leafValues></_>
        <_>
          <internalNodes>
            0 -1 487 -1.3619568198919296e-02</internalNodes>
          <leafValues>
            2.5245696306228638e-01 -1.2922807037830353e-01</leafValues></_>
        <_>
          <internalNodes>
            0 -1 12 5.0286622717976570e-03</internalNodes>
          <leafValues>
            1.0660474002361298e-01 -3.1349530816078186e-01</leafValues></_>
        <_>
          <internalNodes>
            0 -1 148 1.2879758287454024e-05</internalNodes>
          <leafValues>
            -1.6184318065643311e-01 1.9850070774555206e-01</leafValues></_>
        <_>
          <internalNodes>
            0 -1 839 5.9528308920562267e-03</internalNodes>
          <leafValues>
            1.2336018681526184e-01 -3.4494408965110779e-01</leafValues></_>
        <_>
          <internalNodes>
            0 -1 458 -3.4434273838996887e-03</internalNodes>
          <leafValues>
            1.1017997562885284e-01 -2.3079106211662292e-01</leafValues></_>
        <_>
          <internalNodes>
            0 -1 398 -2.0330757834017277e-03</internalNodes>
          <leafValues>
            1.5624581277370453e-01 -2.2854831814765930e-01</leafValues></_>
        <_>
          <internalNodes>
            0 -1 467 -2.1860385313630104e-02</internalNodes>
          <leafValues>
            -6.9223576784133911e-01 5.0315149128437042e-02</leafValues></_>
        <_>
          <internalNodes>
            0 -1 576 -1.0295934975147247e-02</internalNodes>
          <leafValues>
            4.1065791249275208e-01 -9.5718845725059509e-02</leafValues></_>
        <_>
          <internalNodes>
            0 -1 756 1.1067261220887303e-03</internalNodes>
          <leafValues>
            8.1576846539974213e-02 -4.0868392586708069e-01</leafValues></_>
        <_>
          <internalNodes>
            0 -1 23 3.2765096984803677e-03</internalNodes>
          <leafValues>
            8.6224466562271118e-02 -3.1868597865104675e-01</leafValues></_>
        <_>
          <internalNodes>
            0 -1 363 -1.8839146941900253e-03</internalNodes>
          <leafValues>
            8.8036857545375824e-02 -2.9174444079399109e-01</leafValues></_>
        <_>
          <internalNodes>
            0 -1 707 -5.2794078364968300e-03</internalNodes>
          <leafValues>
            3.1546226143836975e-01 -8.8645644485950470e-02</leafValues></_>
        <_>
          <internalNodes>
            0 -1 814 1.6336597036570311e-03</internalNodes>
          <leafValues>
            -9.1727495193481445e-02 3.7990802526473999e-01</leafValues></_>
        <_>
          <internalNodes>
            0 -1 218 9.3662723898887634e-02</internalNodes>
          <leafValues>
            -4.5681506395339966e-02 7.2775089740753174e-01</leafValues></_>
        <_>
          <internalNodes>
            0 -1 464 -4.8103131121024489e-04</internalNodes>
          <leafValues>
            1.9408985972404480e-01 -1.4388824999332428e-01</leafValues></_>
        <_>
          <internalNodes>
            0 -1 697 -4.2505416786298156e-04</internalNodes>
          <leafValues>
            -3.1522279977798462e-01 9.0163394808769226e-02</leafValues></_>
        <_>
          <internalNodes>
            0 -1 269 2.2550467401742935e-03</internalNodes>
          <leafValues>
            -1.4130045473575592e-01 1.9968710839748383e-01</leafValues></_>
        <_>
          <internalNodes>
            0 -1 401 -1.2687824666500092e-02</internalNodes>
          <leafValues>
            -5.6925547122955322e-01 5.2512988448143005e-02</leafValues></_>
        <_>
          <internalNodes>
            0 -1 525 -1.9532430451363325e-03</internalNodes>
          <leafValues>
            1.7641112208366394e-01 -1.6596895456314087e-01</leafValues></_>
        <_>
          <internalNodes>
            0 -1 546 8.5402587428689003e-03</internalNodes>
          <leafValues>
            -4.9097318202257156e-02 6.9177877902984619e-01</leafValues></_>
        <_>
          <internalNodes>
            0 -1 163 1.3222505003795959e-05</internalNodes>
          <leafValues>
            -2.0575192570686340e-01 1.4346081018447876e-01</leafValues></_>
        <_>
          <internalNodes>
            0 -1 129 -1.2127801310271025e-03</internalNodes>
          <leafValues>
            1.9293759763240814e-01 -1.6886973381042480e-01</leafValues></_>
        <_>
          <internalNodes>
            0 -1 849 2.8557050973176956e-03</internalNodes>
          <leafValues>
            7.0848368108272552e-02 -4.1981351375579834e-01</leafValues></_>
        <_>
          <internalNodes>
            0 -1 838 6.1523762997239828e-04</internalNodes>
          <leafValues>
            6.7640937864780426e-02 -3.7691208720207214e-01</leafValues></_>
        <_>
          <internalNodes>
            0 -1 709 -3.1760050915181637e-03</internalNodes>
          <leafValues>
            3.0580970644950867e-01 -8.3812773227691650e-02</leafValues></_>
        <_>
          <internalNodes>
            0 -1 597 -7.2418469935655594e-03</internalNodes>
          <leafValues>
            -6.7867487668991089e-01 4.7187045216560364e-02</leafValues></_>
        <_>
          <internalNodes>
            0 -1 430 -4.8019643872976303e-03</internalNodes>
          <leafValues>
            4.4324377179145813e-01 -7.1941837668418884e-02</leafValues></_>
        <_>
          <internalNodes>
            0 -1 764 -5.4362823721021414e-04</internalNodes>
          <leafValues>
            1.7195256054401398e-01 -1.7736725509166718e-01</leafValues></_>
        <_>
          <internalNodes>
            0 -1 725 -2.9162648133933544e-03</internalNodes>
          <leafValues>
            -5.0089633464813232e-01 5.6356683373451233e-02</leafValues></_>
        <_>
          <internalNodes>
            0 -1 681 -2.7637917082756758e-03</internalNodes>
          <leafValues>
            -4.8906087875366211e-01 4.6925917267799377e-02</leafValues></_>
        <_>
          <internalNodes>
            0 -1 445 -4.2981881648302078e-02</internalNodes>
          <leafValues>
            -7.7223908901214600e-01 2.8993571177124977e-02</leafValues></_>
        <_>
          <internalNodes>
            0 -1 624 -1.3011645933147520e-05</internalNodes>
          <leafValues>
            1.2321867793798447e-01 -1.9177500903606415e-01</leafValues></_>
        <_>
          <internalNodes>
            0 -1 519 3.8273532409220934e-03</internalNodes>
          <leafValues>
            -1.0733791440725327e-01 3.0191209912300110e-01</leafValues></_>
        <_>
          <internalNodes>
            0 -1 476 2.2294046357274055e-03</internalNodes>
          <leafValues>
            6.9989532232284546e-02 -4.2255118489265442e-01</leafValues></_>
        <_>
          <internalNodes>
            0 -1 411 3.6638006567955017e-03</internalNodes>
          <leafValues>
            -6.2913283705711365e-02 5.4947882890701294e-01</leafValues></_>
        <_>
          <internalNodes>
            0 -1 747 -1.3435567962005734e-03</internalNodes>
          <leafValues>
            2.7660021185874939e-01 -9.0597718954086304e-02</leafValues></_>
        <_>
          <internalNodes>
            0 -1 529 -9.8247006535530090e-03</internalNodes>
          <leafValues>
            1.5449780225753784e-01 -1.8099294602870941e-01</leafValues></_>
        <_>
          <internalNodes>
            0 -1 716 -2.6064843405038118e-04</internalNodes>
          <leafValues>
            1.9189319014549255e-01 -1.5163195133209229e-01</leafValues></_>
        <_>
          <internalNodes>
            0 -1 479 1.3003230378672015e-05</internalNodes>
          <leafValues>
            -1.4103503525257111e-01 2.1138407289981842e-01</leafValues></_>
        <_>
          <internalNodes>
            0 -1 899 5.3733936510980129e-04</internalNodes>
          <leafValues>
            8.2452379167079926e-02 -3.4897696971893311e-01</leafValues></_>
        <_>
          <internalNodes>
            0 -1 844 -2.6524480199441314e-04</internalNodes>
          <leafValues>
            2.1669590473175049e-01 -1.2923641502857208e-01</leafValues></_>
        <_>
          <internalNodes>
            0 -1 483 -2.7296375483274460e-03</internalNodes>
          <leafValues>
            2.3161613941192627e-01 -1.1186820268630981e-01</leafValues></_>
        <_>
          <internalNodes>
            0 -1 879 -1.8394408980384469e-03</internalNodes>
          <leafValues>
            -4.4712415337562561e-01 6.3262224197387695e-02</leafValues></_>
        <_>
          <internalNodes>
            0 -1 36 1.1932863853871822e-03</internalNodes>
          <leafValues>
            6.7005358636379242e-02 -3.5568025708198547e-01</leafValues></_>
        <_>
          <internalNodes>
            0 -1 534 -1.5332016628235579e-03</internalNodes>
          <leafValues>
            1.3394533097743988e-01 -1.8874657154083252e-01</leafValues></_>
        <_>
          <internalNodes>
            0 -1 154 4.2198780924081802e-02</internalNodes>
          <leafValues>
            6.3789285719394684e-02 -3.9578899741172791e-01</leafValues></_>
        <_>
          <internalNodes>
            0 -1 636 -2.6665737386792898e-03</internalNodes>
          <leafValues>
            2.3543024063110352e-01 -1.2252337485551834e-01</leafValues></_>
        <_>
          <internalNodes>
            0 -1 562 1.3177579268813133e-02</internalNodes>
          <leafValues>
            8.6525127291679382e-02 -3.7662124633789062e-01</leafValues></_></weakClassifiers></_>
    <!-- stage 9 -->
    <_>
      <maxWeakCount>54</maxWeakCount>
      <stageThreshold>-1.5465474128723145e+00</stageThreshold>
      <weakClassifiers>
        <_>
          <internalNodes>
            0 -1 332 -3.7867492437362671e-01</internalNodes>
          <leafValues>
            5.4045307636260986e-01 -4.5301419496536255e-01</leafValues></_>
        <_>
          <internalNodes>
            0 -1 49 -1.5041097998619080e-02</internalNodes>
          <leafValues>
            3.3424997329711914e-01 -1.7291581630706787e-01</leafValues></_>
        <_>
          <internalNodes>
            0 -1 167 6.3148520886898041e-02</internalNodes>
          <leafValues>
            -9.4819746911525726e-02 4.5904836058616638e-01</leafValues></_>
        <_>
          <internalNodes>
            0 -1 450 -3.7366569042205811e-02</internalNodes>
          <leafValues>
            -7.8090029954910278e-01 4.2153902351856232e-02</leafValues></_>
        <_>
          <internalNodes>
            0 -1 897 2.9099886305630207e-03</internalNodes>
          <leafValues>
            8.2778550684452057e-02 -3.7620002031326294e-01</leafValues></_>
        <_>
          <internalNodes>
            0 -1 599 -2.3417942225933075e-02</internalNodes>
          <leafValues>
            2.0856189727783203e-01 -1.6932922601699829e-01</leafValues></_>
        <_>
          <internalNodes>
            0 -1 831 -2.1840615198016167e-02</internalNodes>
          <leafValues>
            3.7737375497817993e-01 -7.5464069843292236e-02</leafValues></_>
        <_>
          <internalNodes>
            0 -1 601 -5.8949035592377186e-03</internalNodes>
          <leafValues>
            3.0044826865196228e-01 -1.2940007448196411e-01</leafValues></_>
        <_>
          <internalNodes>
            0 -1 502 -7.8557332744821906e-04</internalNodes>
          <leafValues>
            3.6088699102401733e-01 -6.7487806081771851e-02</leafValues></_>
        <_>
          <internalNodes>
            0 -1 130 -2.4802338331937790e-02</internalNodes>
          <leafValues>
            2.9410660266876221e-01 -1.1094318330287933e-01</leafValues></_>
        <_>
          <internalNodes>
            0 -1 541 -8.8193151168525219e-04</internalNodes>
          <leafValues>
            -2.5754129886627197e-01 1.2288839370012283e-01</leafValues></_>
        <_>
          <internalNodes>
            0 -1 740 6.2107495032250881e-03</internalNodes>
          <leafValues>
            -7.2642989456653595e-02 4.3255805969238281e-01</leafValues></_>
        <_>
          <internalNodes>
            0 -1 179 -4.8803970217704773e-02</internalNodes>
          <leafValues>
            6.4549899101257324e-01 -5.0177648663520813e-02</leafValues></_>
        <_>
          <internalNodes>
            0 -1 648 3.0074445530772209e-03</internalNodes>
          <leafValues>
            1.0518247634172440e-01 -3.1228870153427124e-01</leafValues></_>
        <_>
          <internalNodes>
            0 -1 538 -8.3061016630381346e-04</internalNodes>
          <leafValues>
            -2.1612787246704102e-01 1.3607017695903778e-01</leafValues></_>
        <_>
          <internalNodes>
            0 -1 292 6.3141984865069389e-03</internalNodes>
          <leafValues>
            -7.8999981284141541e-02 4.4642472267150879e-01</leafValues></_>
        <_>
          <internalNodes>
            0 -1 817 1.4209922403097153e-02</internalNodes>
          <leafValues>
            -1.1924509704113007e-01 2.7167397737503052e-01</leafValues></_>
        <_>
          <internalNodes>
            0 -1 139 -2.0462358370423317e-03</internalNodes>
          <leafValues>
            -3.9417612552642822e-01 7.2343744337558746e-02</leafValues></_>
        <_>
          <internalNodes>
            0 -1 373 8.2592563703656197e-03</internalNodes>
          <leafValues>
            2.2328326478600502e-02 -9.0434032678604126e-01</leafValues></_>
        <_>
          <internalNodes>
            0 -1 688 1.6671154298819602e-04</internalNodes>
          <leafValues>
            1.3720995187759399e-01 -1.9353099167346954e-01</leafValues></_>
        <_>
          <internalNodes>
            0 -1 596 -4.4246051402296871e-05</internalNodes>
          <leafValues>
            9.6169032156467438e-02 -3.2656851410865784e-01</leafValues></_>
        <_>
          <internalNodes>
            0 -1 221 9.8518759012222290e-02</internalNodes>
          <leafValues>
            -6.0008630156517029e-02 6.4004772901535034e-01</leafValues></_>
        <_>
          <internalNodes>
            0 -1 494 6.3505681464448571e-04</internalNodes>
          <leafValues>
            -1.8756605684757233e-01 1.4618104696273804e-01</leafValues></_>
        <_>
          <internalNodes>
            0 -1 370 -1.5028925612568855e-02</internalNodes>
          <leafValues>
            2.4440240859985352e-01 -1.2838454544544220e-01</leafValues></_>
        <_>
          <internalNodes>
            0 -1 177 1.6203490085899830e-03</internalNodes>
          <leafValues>
            8.3702936768531799e-02 -3.4414884448051453e-01</leafValues></_>
        <_>
          <internalNodes>
            0 -1 240 -3.3063329756259918e-03</internalNodes>
          <leafValues>
            1.7838510870933533e-01 -1.6168345510959625e-01</leafValues></_>
        <_>
          <internalNodes>
            0 -1 660 -1.3188549019105267e-05</internalNodes>
          <leafValues>
            1.8805673718452454e-01 -1.5998682379722595e-01</leafValues></_>
        <_>
          <internalNodes>
            0 -1 672 -3.7193852476775646e-03</internalNodes>
          <leafValues>
            3.7966436147689819e-01 -7.7527031302452087e-02</leafValues></_>
        <_>
          <internalNodes>
            0 -1 624 -1.3093932466290426e-05</internalNodes>
          <leafValues>
            1.4540611207485199e-01 -1.9267585873603821e-01</leafValues></_>
        <_>
          <internalNodes>
            0 -1 618 -3.5819970071315765e-04</internalNodes>
          <leafValues>
            -2.7146381139755249e-01 1.1555228382349014e-01</leafValues></_>
        <_>
          <internalNodes>
            0 -1 337 -1.6462143510580063e-02</internalNodes>
          <leafValues>
            5.4247826337814331e-01 -5.3214963525533676e-02</leafValues></_>
        <_>
          <internalNodes>
            0 -1 501 -1.7551088239997625e-03</internalNodes>
          <leafValues>
            3.1641235947608948e-01 -7.7991269528865814e-02</leafValues></_>
        <_>
          <internalNodes>
            0 -1 264 -1.8867862224578857e-01</internalNodes>
          <leafValues>
            5.9359550476074219e-01 -4.5508868992328644e-02</leafValues></_>
        <_>
          <internalNodes>
            0 -1 704 -1.9642563711386174e-04</internalNodes>
          <leafValues>
            1.6328088939189911e-01 -1.7095902562141418e-01</leafValues></_>
        <_>
          <internalNodes>
            0 -1 809 -3.3532436937093735e-03</internalNodes>
          <leafValues>
            -3.8730892539024353e-01 6.9292254745960236e-02</leafValues></_>
        <_>
          <internalNodes>
            0 -1 721 -7.2687125066295266e-04</internalNodes>
          <leafValues>
            1.7872126400470734e-01 -1.6363582015037537e-01</leafValues></_>
        <_>
          <internalNodes>
            0 -1 696 1.9501557108014822e-03</internalNodes>
          <leafValues>
            -8.1693649291992188e-02 3.6411404609680176e-01</leafValues></_>
        <_>
          <internalNodes>
            0 -1 647 -6.8631244357675314e-04</internalNodes>
          <leafValues>
            -3.8836520910263062e-01 6.6748760640621185e-02</leafValues></_>
        <_>
          <internalNodes>
            0 -1 604 -1.2554547538456973e-05</internalNodes>
          <leafValues>
            1.5292645990848541e-01 -1.5675482153892517e-01</leafValues></_>
        <_>
          <internalNodes>
            0 -1 661 -1.2123686246923171e-05</internalNodes>
          <leafValues>
            1.5557210147380829e-01 -1.6148720681667328e-01</leafValues></_>
        <_>
          <internalNodes>
            0 -1 475 -2.2004139609634876e-03</internalNodes>
          <leafValues>
            8.9853063225746155e-02 -2.9077452421188354e-01</leafValues></_>
        <_>
          <internalNodes>
            0 -1 249 -1.1852561729028821e-03</internalNodes>
          <leafValues>
            2.1291747689247131e-01 -1.1986543983221054e-01</leafValues></_>
        <_>
          <internalNodes>
            0 -1 727 1.7134519293904305e-03</internalNodes>
          <leafValues>
            5.1068462431430817e-02 -4.7850555181503296e-01</leafValues></_>
        <_>
          <internalNodes>
            0 -1 75 -1.1075598886236548e-03</internalNodes>
          <leafValues>
            -3.6987254023551941e-01 5.6834354996681213e-02</leafValues></_>
        <_>
          <internalNodes>
            0 -1 459 -7.3159962892532349e-02</internalNodes>
          <leafValues>
            -4.7016289830207825e-01 4.9599986523389816e-02</leafValues></_>
        <_>
          <internalNodes>
            0 -1 396 3.3708526752889156e-03</internalNodes>
          <leafValues>
            -1.1293058842420578e-01 2.1780107915401459e-01</leafValues></_>
        <_>
          <internalNodes>
            0 -1 616 -2.6652339147403836e-04</internalNodes>
          <leafValues>
            1.4228411018848419e-01 -1.8667690455913544e-01</leafValues></_>
        <_>
          <internalNodes>
            0 -1 527 -3.9743487723171711e-03</internalNodes>
          <leafValues>
            1.2925806641578674e-01 -2.6608058810234070e-01</leafValues></_>
        <_>
          <internalNodes>
            0 -1 499 8.4664113819599152e-04</internalNodes>
          <leafValues>
            -1.1890723556280136e-01 2.4015758931636810e-01</leafValues></_>
        <_>
          <internalNodes>
            0 -1 114 -9.6759006381034851e-02</internalNodes>
          <leafValues>
            -5.0475627183914185e-01 5.7341370731592178e-02</leafValues></_>
        <_>
          <internalNodes>
            0 -1 900 9.2093297280371189e-04</internalNodes>
          <leafValues>
            5.0647761672735214e-02 -4.2304378747940063e-01</leafValues></_>
        <_>
          <internalNodes>
            0 -1 762 6.2252245843410492e-03</internalNodes>
          <leafValues>
            -9.4190225005149841e-02 2.5059297680854797e-01</leafValues></_>
        <_>
          <internalNodes>
            0 -1 286 5.5017955601215363e-03</internalNodes>
          <leafValues>
            5.1795776933431625e-02 -4.5159825682640076e-01</leafValues></_>
        <_>
          <internalNodes>
            0 -1 836 -1.6727828187867999e-03</internalNodes>
          <leafValues>
            2.3835060000419617e-01 -9.4300769269466400e-02</leafValues></_></weakClassifiers></_>
    <!-- stage 10 -->
    <_>
      <maxWeakCount>55</maxWeakCount>
      <stageThreshold>-1.5959311723709106e+00</stageThreshold>
      <weakClassifiers>
        <_>
          <internalNodes>
            0 -1 263 -4.9268245697021484e-01</internalNodes>
          <leafValues>
            6.6607457399368286e-01 -4.1222658753395081e-01</leafValues></_>
        <_>
          <internalNodes>
            0 -1 45 -5.4421417415142059e-02</internalNodes>
          <leafValues>
            3.2026439905166626e-01 -1.6719247400760651e-01</leafValues></_>
        <_>
          <internalNodes>
            0 -1 629 -1.0136838536709547e-03</internalNodes>
          <leafValues>
            2.1447557210922241e-01 -1.8701004981994629e-01</leafValues></_>
        <_>
          <internalNodes>
            0 -1 311 -9.3707740306854248e-03</internalNodes>
          <leafValues>
            1.3871903717517853e-01 -2.5550073385238647e-01</leafValues></_>
        <_>
          <internalNodes>
            0 -1 800 -7.5720511376857758e-03</internalNodes>
          <leafValues>
            2.4996271729469299e-01 -1.7315505445003510e-01</leafValues></_>
        <_>
          <internalNodes>
            0 -1 169 -1.2936317920684814e-01</internalNodes>
          <leafValues>
            -7.1263188123703003e-01 7.1527048945426941e-02</leafValues></_>
        <_>
          <internalNodes>
            0 -1 257 4.1648405604064465e-03</internalNodes>
          <leafValues>
            1.0603252053260803e-01 -3.6201536655426025e-01</leafValues></_>
        <_>
          <internalNodes>
            0 -1 708 -7.6442575082182884e-03</internalNodes>
          <leafValues>
            3.8787654042243958e-01 -9.0650722384452820e-02</leafValues></_>
        <_>
          <internalNodes>
            0 -1 326 1.5229792334139347e-02</internalNodes>
          <leafValues>
            -6.1984084546566010e-02 6.0884398221969604e-01</leafValues></_>
        <_>
          <internalNodes>
            0 -1 695 -3.1329225748777390e-03</internalNodes>
          <leafValues>
            5.4701048135757446e-01 -5.9601049870252609e-02</leafValues></_>
        <_>
          <internalNodes>
            0 -1 20 -1.0909719392657280e-02</internalNodes>
          <leafValues>
            -5.2867853641510010e-01 6.3040785491466522e-02</leafValues></_>
        <_>
          <internalNodes>
            0 -1 98 4.9675684422254562e-03</internalNodes>
          <leafValues>
            -5.5901449173688889e-02 4.9349468946456909e-01</leafValues></_>
        <_>
          <internalNodes>
            0 -1 7 1.1156708002090454e-02</internalNodes>
          <leafValues>
            9.5535859465599060e-02 -2.9808869957923889e-01</leafValues></_>
        <_>
          <internalNodes>
            0 -1 688 5.0741084851324558e-04</internalNodes>
          <leafValues>
            1.0317622125148773e-01 -2.5087729096412659e-01</leafValues></_>
        <_>
          <internalNodes>
            0 -1 435 -1.4664484560489655e-01</internalNodes>
          <leafValues>
            5.0880354642868042e-01 -6.3434541225433350e-02</leafValues></_>
        <_>
          <internalNodes>
            0 -1 674 -4.7731585800647736e-03</internalNodes>
          <leafValues>
            1.4818689227104187e-01 -2.0364810526371002e-01</leafValues></_>
        <_>
          <internalNodes>
            0 -1 600 -3.3094666898250580e-02</internalNodes>
          <leafValues>
            -7.7993959188461304e-01 3.6202799528837204e-02</leafValues></_>
        <_>
          <internalNodes>
            0 -1 216 -1.1673221597447991e-03</internalNodes>
          <leafValues>
            2.3270194232463837e-01 -1.2576259672641754e-01</leafValues></_>
        <_>
          <internalNodes>
            0 -1 81 -1.3870797120034695e-03</internalNodes>
          <leafValues>
            -3.2136747241020203e-01 9.3114376068115234e-02</leafValues></_>
        <_>
          <internalNodes>
            0 -1 778 -2.6723002083599567e-03</internalNodes>
          <leafValues>
            3.1342661380767822e-01 -8.8362507522106171e-02</leafValues></_>
        <_>
          <internalNodes>
            0 -1 306 2.2664335556328297e-03</internalNodes>
          <leafValues>
            -5.5853988975286484e-02 4.2671430110931396e-01</leafValues></_>
        <_>
          <internalNodes>
            0 -1 398 -1.9768918864428997e-03</internalNodes>
          <leafValues>
            1.1821394413709641e-01 -2.1876896917819977e-01</leafValues></_>
        <_>
          <internalNodes>
            0 -1 477 1.4362552064994816e-05</internalNodes>
          <leafValues>
            -2.1515139937400818e-01 1.3923321664333344e-01</leafValues></_>
        <_>
          <internalNodes>
            0 -1 866 -3.3260225318372250e-03</internalNodes>
          <leafValues>
            -4.4874244928359985e-01 5.5643782019615173e-02</leafValues></_>
        <_>
          <internalNodes>
            0 -1 851 7.3219870682805777e-04</internalNodes>
          <leafValues>
            9.1867908835411072e-02 -2.7047067880630493e-01</leafValues></_>
        <_>
          <internalNodes>
            0 -1 250 -1.3269314169883728e-01</internalNodes>
          <leafValues>
            -6.1042332649230957e-01 3.8606688380241394e-02</leafValues></_>
        <_>
          <internalNodes>
            0 -1 472 -4.0104598738253117e-03</internalNodes>
          <leafValues>
            2.5789150595664978e-01 -1.0105960071086884e-01</leafValues></_>
        <_>
          <internalNodes>
            0 -1 267 -9.7803592681884766e-02</internalNodes>
          <leafValues>
            -6.7152160406112671e-01 4.2067542672157288e-02</leafValues></_>
        <_>
          <internalNodes>
            0 -1 149 -2.4542957544326782e-02</internalNodes>
          <leafValues>
            1.6552512347698212e-01 -1.4148345589637756e-01</leafValues></_>
        <_>
          <internalNodes>
            0 -1 246 1.7042638501152396e-03</internalNodes>
          <leafValues>
            1.6296637058258057e-01 -1.7391872406005859e-01</leafValues></_>
        <_>
          <internalNodes>
            0 -1 541 -6.9008895661681890e-04</internalNodes>
          <leafValues>
            -2.1744289994239807e-01 1.1556174606084824e-01</leafValues></_>
        <_>
          <internalNodes>
            0 -1 201 5.7730409316718578e-03</internalNodes>
          <leafValues>
            5.7767827063798904e-02 -4.8062056303024292e-01</leafValues></_>
        <_>
          <internalNodes>
            0 -1 481 4.9070464447140694e-03</internalNodes>
          <leafValues>
            -6.9724962115287781e-02 4.2680072784423828e-01</leafValues></_>
        <_>
          <internalNodes>
            0 -1 575 -3.6746026016771793e-03</internalNodes>
          <leafValues>
            -4.1446995735168457e-01 6.8651825189590454e-02</leafValues></_>
        <_>
          <internalNodes>
            0 -1 171 -5.1562208682298660e-04</internalNodes>
          <leafValues>
            1.7636258900165558e-01 -1.4824904501438141e-01</leafValues></_>
        <_>
          <internalNodes>
            0 -1 230 -2.5170124135911465e-03</internalNodes>
          <leafValues>
            2.0608660578727722e-01 -1.1953469365835190e-01</leafValues></_>
        <_>
          <internalNodes>
            0 -1 359 -3.6225947551429272e-03</internalNodes>
          <leafValues>
            2.6950052380561829e-01 -9.7680099308490753e-02</leafValues></_>
        <_>
          <internalNodes>
            0 -1 810 7.1149214636534452e-04</internalNodes>
          <leafValues>
            6.6181853413581848e-02 -4.0952539443969727e-01</leafValues></_>
        <_>
          <internalNodes>
            0 -1 724 -2.1746016573160887e-03</internalNodes>
          <leafValues>
            -3.2862788438796997e-01 6.9724611937999725e-02</leafValues></_>
        <_>
          <internalNodes>
            0 -1 525 -2.3040175437927246e-03</internalNodes>
          <leafValues>
            1.6058616340160370e-01 -1.5243898332118988e-01</leafValues></_>
        <_>
          <internalNodes>
            0 -1 415 -1.4492667105514556e-04</internalNodes>
          <leafValues>
            1.8242937326431274e-01 -1.4705298840999603e-01</leafValues></_>
        <_>
          <internalNodes>
            0 -1 506 -2.5888316333293915e-02</internalNodes>
          <leafValues>
            -8.5847562551498413e-01 2.6355190202593803e-02</leafValues></_>
        <_>
          <internalNodes>
            0 -1 4 1.0642783017829061e-03</internalNodes>
          <leafValues>
            5.7523734867572784e-02 -3.6842575669288635e-01</leafValues></_>
        <_>
          <internalNodes>
            0 -1 62 -4.5003980631008744e-04</internalNodes>
          <leafValues>
            1.6053208708763123e-01 -1.4295649528503418e-01</leafValues></_>
        <_>
          <internalNodes>
            0 -1 869 -7.2386130690574646e-02</internalNodes>
          <leafValues>
            -8.9009195566177368e-01 2.7616988867521286e-02</leafValues></_>
        <_>
          <internalNodes>
            0 -1 196 7.8177370131015778e-02</internalNodes>
          <leafValues>
            2.6814043521881104e-02 -6.7075639963150024e-01</leafValues></_>
        <_>
          <internalNodes>
            0 -1 686 -1.2627351097762585e-03</internalNodes>
          <leafValues>
            -4.9553966522216797e-01 4.2606405913829803e-02</leafValues></_>
        <_>
          <internalNodes>
            0 -1 112 -1.0187819600105286e-02</internalNodes>
          <leafValues>
            3.6974489688873291e-01 -6.9399751722812653e-02</leafValues></_>
        <_>
          <internalNodes>
            0 -1 37 -2.2001988254487514e-03</internalNodes>
          <leafValues>
            -4.0446099638938904e-01 5.9442397207021713e-02</leafValues></_>
        <_>
          <internalNodes>
            0 -1 546 7.3010786436498165e-03</internalNodes>
          <leafValues>
            -4.9222949892282486e-02 4.9690672755241394e-01</leafValues></_>
        <_>
          <internalNodes>
            0 -1 195 -1.5764002455398440e-04</internalNodes>
          <leafValues>
            1.4180938899517059e-01 -1.7921274900436401e-01</leafValues></_>
        <_>
          <internalNodes>
            0 -1 131 -3.5944491624832153e-02</internalNodes>
          <leafValues>
            2.9913431406021118e-01 -8.8565982878208160e-02</leafValues></_>
        <_>
          <internalNodes>
            0 -1 366 -1.2124395652790554e-05</internalNodes>
          <leafValues>
            1.5027293562889099e-01 -1.9296820461750031e-01</leafValues></_>
        <_>
          <internalNodes>
            0 -1 396 1.9631506875157356e-03</internalNodes>
          <leafValues>
            -1.2658689916133881e-01 2.0676039159297943e-01</leafValues></_>
        <_>
          <internalNodes>
            0 -1 303 1.2776664334523957e-05</internalNodes>
          <leafValues>
            -1.3843831419944763e-01 1.7962653934955597e-01</leafValues></_></weakClassifiers></_>
    <!-- stage 11 -->
    <_>
      <maxWeakCount>54</maxWeakCount>
      <stageThreshold>-1.5746756792068481e+00</stageThreshold>
      <weakClassifiers>
        <_>
          <internalNodes>
            0 -1 265 -2.2000916302204132e-02</internalNodes>
          <leafValues>
            3.0866143107414246e-01 -4.6023344993591309e-01</leafValues></_>
        <_>
          <internalNodes>
            0 -1 742 -1.6282213618978858e-03</internalNodes>
          <leafValues>
            4.1500732302665710e-01 -1.5260991454124451e-01</leafValues></_>
        <_>
          <internalNodes>
            0 -1 602 -5.0277751870453358e-03</internalNodes>
          <leafValues>
            2.5146090984344482e-01 -1.6232557594776154e-01</leafValues></_>
        <_>
          <internalNodes>
            0 -1 637 -3.1239751260727644e-03</internalNodes>
          <leafValues>
            3.1069552898406982e-01 -1.2803401052951813e-01</leafValues></_>
        <_>
          <internalNodes>
            0 -1 125 -7.3171397671103477e-03</internalNodes>
          <leafValues>
            1.0172007232904434e-01 -3.8305893540382385e-01</leafValues></_>
        <_>
          <internalNodes>
            0 -1 853 1.3775562401860952e-03</internalNodes>
          <leafValues>
            -6.6182024776935577e-02 3.9714184403419495e-01</leafValues></_>
        <_>
          <internalNodes>
            0 -1 878 -3.9253621362149715e-03</internalNodes>
          <leafValues>
            -3.6805099248886108e-01 1.0473079234361649e-01</leafValues></_>
        <_>
          <internalNodes>
            0 -1 412 -8.3528802497312427e-04</internalNodes>
          <leafValues>
            -1.8145279586315155e-01 1.7376118898391724e-01</leafValues></_>
        <_>
          <internalNodes>
            0 -1 365 1.3162171853764448e-05</internalNodes>
          <leafValues>
            -1.4968742430210114e-01 2.3057354986667633e-01</leafValues></_>
        <_>
          <internalNodes>
            0 -1 449 -5.5953771807253361e-03</internalNodes>
          <leafValues>
            2.9825139045715332e-01 -1.0057070851325989e-01</leafValues></_>
        <_>
          <internalNodes>
            0 -1 889 -3.9324481040239334e-03</internalNodes>
          <leafValues>
            -3.3701103925704956e-01 8.6637869477272034e-02</leafValues></_>
        <_>
          <internalNodes>
            0 -1 745 -3.6560168955475092e-03</internalNodes>
          <leafValues>
            1.4935244619846344e-01 -2.0256945490837097e-01</leafValues></_>
        <_>
          <internalNodes>
            0 -1 585 -1.2167515706096310e-05</internalNodes>
          <leafValues>
            1.6029301285743713e-01 -1.7950913310050964e-01</leafValues></_>
        <_>
          <internalNodes>
            0 -1 787 1.0714590549468994e-01</internalNodes>
          <leafValues>
            -5.5710151791572571e-02 4.8180735111236572e-01</leafValues></_>
        <_>
          <internalNodes>
            0 -1 211 -2.8549373149871826e-02</internalNodes>
          <leafValues>
            2.9059851169586182e-01 -9.3815594911575317e-02</leafValues></_>
        <_>
          <internalNodes>
            0 -1 420 1.8850037595257163e-03</internalNodes>
          <leafValues>
            -8.8494494557380676e-02 3.3816558122634888e-01</leafValues></_>
        <_>
          <internalNodes>
            0 -1 618 -6.7454430973157287e-04</internalNodes>
          <leafValues>
            -3.4563672542572021e-01 7.4252761900424957e-02</leafValues></_>
        <_>
          <internalNodes>
            0 -1 357 -1.9845953211188316e-03</internalNodes>
          <leafValues>
            2.6553592085838318e-01 -1.1875826120376587e-01</leafValues></_>
        <_>
          <internalNodes>
            0 -1 769 2.2755589336156845e-02</internalNodes>
          <leafValues>
            -1.6391113400459290e-01 1.8088717758655548e-01</leafValues></_>
        <_>
          <internalNodes>
            0 -1 624 -1.3093932466290426e-05</internalNodes>
          <leafValues>
            1.3759247958660126e-01 -2.0568518340587616e-01</leafValues></_>
        <_>
          <internalNodes>
            0 -1 500 3.4244329435750842e-04</internalNodes>
          <leafValues>
            -1.3282665610313416e-01 2.2958584129810333e-01</leafValues></_>
        <_>
          <internalNodes>
            0 -1 83 1.8047792837023735e-03</internalNodes>
          <leafValues>
            6.5871529281139374e-02 -4.2988497018814087e-01</leafValues></_>
        <_>
          <internalNodes>
            0 -1 537 -2.2874707356095314e-02</internalNodes>
          <leafValues>
            -4.6185898780822754e-01 5.6121882051229477e-02</leafValues></_>
        <_>
          <internalNodes>
            0 -1 14 6.4578518271446228e-02</internalNodes>
          <leafValues>
            -6.6599234938621521e-02 4.1378763318061829e-01</leafValues></_>
        <_>
          <internalNodes>
            0 -1 472 -4.7485986724495888e-03</internalNodes>
          <leafValues>
            3.1072098016738892e-01 -9.1759629547595978e-02</leafValues></_>
        <_>
          <internalNodes>
            0 -1 138 9.9769816733896732e-04</internalNodes>
          <leafValues>
            7.5335115194320679e-02 -3.7039163708686829e-01</leafValues></_>
        <_>
          <internalNodes>
            0 -1 321 1.1949413456022739e-03</internalNodes>
          <leafValues>
            -8.1205256283283234e-02 3.3796152472496033e-01</leafValues></_>
        <_>
          <internalNodes>
            0 -1 606 -2.6141217676922679e-04</internalNodes>
          <leafValues>
            7.7607542276382446e-02 -3.6922940611839294e-01</leafValues></_>
        <_>
          <internalNodes>
            0 -1 442 -1.2357973493635654e-02</internalNodes>
          <leafValues>
            3.3595025539398193e-01 -8.7448529899120331e-02</leafValues></_>
        <_>
          <internalNodes>
            0 -1 582 -1.5214977320283651e-03</internalNodes>
          <leafValues>
            -2.5663468241691589e-01 9.6542999148368835e-02</leafValues></_>
        <_>
          <internalNodes>
            0 -1 336 5.8556608855724335e-03</internalNodes>
          <leafValues>
            -5.8448713272809982e-02 4.2543083429336548e-01</leafValues></_>
        <_>
          <internalNodes>
            0 -1 288 7.0578260347247124e-03</internalNodes>
          <leafValues>
            5.2748810499906540e-02 -4.7912040352821350e-01</leafValues></_>
        <_>
          <internalNodes>
            0 -1 2 3.7420778535306454e-03</internalNodes>
          <leafValues>
            6.2995322048664093e-02 -3.7763279676437378e-01</leafValues></_>
        <_>
          <internalNodes>
            0 -1 128 -4.5966124162077904e-04</internalNodes>
          <leafValues>
            2.0488072931766510e-01 -1.1829882115125656e-01</leafValues></_>
        <_>
          <internalNodes>
            0 -1 326 1.6741508617997169e-02</internalNodes>
          <leafValues>
            -4.2985007166862488e-02 5.1111924648284912e-01</leafValues></_>
        <_>
          <internalNodes>
            0 -1 121 4.9431767547503114e-04</internalNodes>
          <leafValues>
            -1.9596345722675323e-01 1.3228560984134674e-01</leafValues></_>
        <_>
          <internalNodes>
            0 -1 693 3.7493077106773853e-03</internalNodes>
          <leafValues>
            -4.7493800520896912e-02 5.4675239324569702e-01</leafValues></_>
        <_>
          <internalNodes>
            0 -1 645 -8.0855796113610268e-04</internalNodes>
          <leafValues>
            -3.9109480381011963e-01 6.6627696156501770e-02</leafValues></_>
        <_>
          <internalNodes>
            0 -1 236 -9.5402494072914124e-02</internalNodes>
          <leafValues>
            -7.5198930501937866e-01 2.8118779882788658e-02</leafValues></_>
        <_>
          <internalNodes>
            0 -1 403 -1.0172156617045403e-02</internalNodes>
          <leafValues>
            1.8551848828792572e-01 -1.3025908172130585e-01</leafValues></_>
        <_>
          <internalNodes>
            0 -1 492 2.8415868291631341e-04</internalNodes>
          <leafValues>
            -2.1643598377704620e-01 1.5665446221828461e-01</leafValues></_>
        <_>
          <internalNodes>
            0 -1 52 3.3508602064102888e-03</internalNodes>
          <leafValues>
            5.2693929523229599e-02 -4.0496531128883362e-01</leafValues></_>
        <_>
          <internalNodes>
            0 -1 375 -2.8744287556037307e-04</internalNodes>
          <leafValues>
            1.6291800141334534e-01 -1.3985471427440643e-01</leafValues></_>
        <_>
          <internalNodes>
            0 -1 217 -1.1328121181577444e-03</internalNodes>
          <leafValues>
            2.3796892166137695e-01 -1.1696970462799072e-01</leafValues></_>
        <_>
          <internalNodes>
            0 -1 325 -4.9402646254748106e-04</internalNodes>
          <leafValues>
            1.9292633235454559e-01 -1.2227091193199158e-01</leafValues></_>
        <_>
          <internalNodes>
            0 -1 386 -1.9087457656860352e-01</internalNodes>
          <leafValues>
            1.5001301467418671e-01 -1.6540661454200745e-01</leafValues></_>
        <_>
          <internalNodes>
            0 -1 518 -1.0453137801960111e-03</internalNodes>
          <leafValues>
            2.0801697671413422e-01 -1.2784177064895630e-01</leafValues></_>
        <_>
          <internalNodes>
            0 -1 710 2.9753311537206173e-03</internalNodes>
          <leafValues>
            -6.9583430886268616e-02 3.4500050544738770e-01</leafValues></_>
        <_>
          <internalNodes>
            0 -1 586 -5.1259110477985814e-05</internalNodes>
          <leafValues>
            1.2005242705345154e-01 -2.0954889059066772e-01</leafValues></_>
        <_>
          <internalNodes>
            0 -1 547 1.5544758643954992e-03</internalNodes>
          <leafValues>
            6.2449961900711060e-02 -3.8498985767364502e-01</leafValues></_>
        <_>
          <internalNodes>
            0 -1 181 1.3335573021322489e-03</internalNodes>
          <leafValues>
            1.3142029941082001e-01 -1.7864687740802765e-01</leafValues></_>
        <_>
          <internalNodes>
            0 -1 846 2.6215566322207451e-03</internalNodes>
          <leafValues>
            7.9421661794185638e-02 -2.9246804118156433e-01</leafValues></_>
        <_>
          <internalNodes>
            0 -1 772 -1.9892189651727676e-02</internalNodes>
          <leafValues>
            -5.2262681722640991e-01 3.9532590657472610e-02</leafValues></_>
        <_>
          <internalNodes>
            0 -1 552 -1.3720749411731958e-03</internalNodes>
          <leafValues>
            2.4815075099468231e-01 -8.8383786380290985e-02</leafValues></_></weakClassifiers></_>
    <!-- stage 12 -->
    <_>
      <maxWeakCount>100</maxWeakCount>
      <stageThreshold>-1.6337099075317383e+00</stageThreshold>
      <weakClassifiers>
        <_>
          <internalNodes>
            0 -1 145 -5.1391333341598511e-01</internalNodes>
          <leafValues>
            5.3455573320388794e-01 -4.2141425609588623e-01</leafValues></_>
        <_>
          <internalNodes>
            0 -1 145 -5.1388466358184814e-01</internalNodes>
          <leafValues>
            -1. -2.7938544750213623e-02</leafValues></_>
        <_>
          <internalNodes>
            0 -1 145 -5.1383543014526367e-01</internalNodes>
          <leafValues>
            1. -1.3098910858388990e-04</leafValues></_>
        <_>
          <internalNodes>
            0 -1 145 -5.1367092132568359e-01</internalNodes>
          <leafValues>
            -1. 1.0072522127302364e-04</leafValues></_>
        <_>
          <internalNodes>
            0 -1 145 -5.1363539695739746e-01</internalNodes>
          <leafValues>
            1. -1.2374705693218857e-04</leafValues></_>
        <_>
          <internalNodes>
            0 -1 145 -5.1351308822631836e-01</internalNodes>
          <leafValues>
            -1. 1.0074551391880959e-04</leafValues></_>
        <_>
          <internalNodes>
            0 -1 145 -5.1339924335479736e-01</internalNodes>
          <leafValues>
            1. -2.4758602376095951e-04</leafValues></_>
        <_>
          <internalNodes>
            0 -1 145 -5.1331543922424316e-01</internalNodes>
          <leafValues>
            -1. 5.0380367611069232e-05</leafValues></_>
        <_>
          <internalNodes>
            0 -1 145 -5.1327663660049438e-01</internalNodes>
          <leafValues>
            1. -1.2383901048451662e-04</leafValues></_>
        <_>
          <internalNodes>
            0 -1 145 -5.1325714588165283e-01</internalNodes>
          <leafValues>
            -1. 5.0385446229483932e-05</leafValues></_>
        <_>
          <internalNodes>
            0 -1 145 -5.1324814558029175e-01</internalNodes>
          <leafValues>
            1. -1.2386968592181802e-04</leafValues></_>
        <_>
          <internalNodes>
            0 -1 145 -5.1310873031616211e-01</internalNodes>
          <leafValues>
            -1. 1.0078612831421196e-04</leafValues></_>
        <_>
          <internalNodes>
            0 -1 145 -5.1287329196929932e-01</internalNodes>
          <leafValues>
            1. -2.4783148546703160e-04</leafValues></_>
        <_>
          <internalNodes>
            0 -1 145 -5.1252853870391846e-01</internalNodes>
          <leafValues>
            -1. 1.0080645006382838e-04</leafValues></_>
        <_>
          <internalNodes>
            0 -1 145 -5.1236391067504883e-01</internalNodes>
          <leafValues>
            1. -1.2396181409712881e-04</leafValues></_>
        <_>
          <internalNodes>
            0 -1 145 -5.1217544078826904e-01</internalNodes>
          <leafValues>
            -1. 1.0082677908940241e-04</leafValues></_>
        <_>
          <internalNodes>
            0 -1 145 -5.1215177774429321e-01</internalNodes>
          <leafValues>
            1. -1.2399256229400635e-04</leafValues></_>
        <_>
          <internalNodes>
            0 -1 145 -5.1195478439331055e-01</internalNodes>
          <leafValues>
            -1. 1.5127830556593835e-04</leafValues></_>
        <_>
          <internalNodes>
            0 -1 145 -5.1125138998031616e-01</internalNodes>
          <leafValues>
            9.9782580137252808e-01 -5.9327762573957443e-04</leafValues></_>
        <_>
          <internalNodes>
            0 -1 145 -5.1122409105300903e-01</internalNodes>
          <leafValues>
            -1. 1.0090810246765614e-04</leafValues></_>
        <_>
          <internalNodes>
            0 -1 145 -5.1100206375122070e-01</internalNodes>
          <leafValues>
            1. -1.2420817802194506e-04</leafValues></_>
        <_>
          <internalNodes>
            0 -1 145 -5.1060664653778076e-01</internalNodes>
          <leafValues>
            -1. 1.0092854063259438e-04</leafValues></_>
        <_>
          <internalNodes>
            0 -1 145 -5.0981068611145020e-01</internalNodes>
          <leafValues>
            9.9713027477264404e-01 -6.6840392537415028e-04</leafValues></_>
        <_>
          <internalNodes>
            0 -1 145 -5.0971961021423340e-01</internalNodes>
          <leafValues>
            -1. 5.0492199079599231e-05</leafValues></_>
        <_>
          <internalNodes>
            0 -1 145 -5.0969350337982178e-01</internalNodes>
          <leafValues>
            1. -1.2445550237316638e-04</leafValues></_>
        <_>
          <internalNodes>
            0 -1 145 -5.0962316989898682e-01</internalNodes>
          <leafValues>
